{
  "kernels": [
    [
      [
        [
          [
            0.8867106710748278,
            0.7970387062626473,
            0.7254700154938467,
            0.18139454387869872,
            -0.6168453178419255
          ],
          [
            0.8608199015108094,
            0.7214582234498145,
            0.47372167338412,
            -0.1699335265637167,
            -0.8035945271201547
          ],
          [
            0.922039864822794,
            0.6151235468970475,
            0.0430952202605853,
            -0.611891580208903,
            -1.1229426158528903
          ],
          [
            0.9406025440129998,
            0.32871710716256586,
            -0.1707694042372263,
            -0.6336406975212501,
            -1.0761385922665248
          ],
          [
            0.9053340360852015,
            0.12499173812026318,
            -0.4039037843299781,
            -0.7484440513192088,
            -1.0449326360792177
          ]
        ]
      ],
      [
        [
          [
            0.911797793156813,
            0.9189799283413054,
            0.8809358735097267,
            0.8247133168748689,
            1.038599008522822
          ],
          [
            0.6855222102241637,
            0.6332811428472029,
            0.5445572677046567,
            0.5191839530131324,
            0.48351008745229185
          ],
          [
            0.12603306612035903,
            0.11632348358416594,
            0.1757591047101892,
            0.13293923342304112,
            -0.10078515385820046
          ],
          [
            -0.8353539291642379,
            -0.5605425584324869,
            -0.450046198966216,
            -0.4439471163255123,
            -0.6324444572142371
          ],
          [
            -1.1598211873967463,
            -1.1370272656782336,
            -1.1643232387549187,
            -1.016255805045019,
            -1.02789738619531
          ]
        ]
      ]
    ],
    [
      [
        [
          [
            -0.06887605450492784,
            0.1372163384763898,
            -0.2967522443669813
          ],
          [
            0.009680911388091478,
            -0.1241320602512664,
            -0.11831417627980595
          ],
          [
            -0.9226990672568606,
            -0.6034723069879807,
            -0.32039878047303316
          ]
        ],
        [
          [
            0.10202218874437988,
            -0.3056143793405706,
            0.20502021206154714
          ],
          [
            -0.010267099546254906,
            0.4253706032545929,
            0.49411492763273873
          ],
          [
            0.5208508771656979,
            0.755251327335674,
            0.22032912386370787
          ]
        ]
      ],
      [
        [
          [
            0.04877015133904418,
            0.09274793327325641,
            0.02002940757201686
          ],
          [
            -0.11257464886438215,
            -0.1348599098762481,
            -0.07881361006356889
          ],
          [
            0.00617507251157376,
            -0.005778829928972438,
            -0.09106365170944099
          ]
        ],
        [
          [
            -0.11958496154039851,
            -0.03413149280376202,
            -0.10192184787524815
          ],
          [
            -0.14161664398321153,
            -0.050449077527811796,
            0.03735778812309415
          ],
          [
            -0.18969004170317424,
            -0.0401645883231857,
            -0.0713992378021043
          ]
        ]
      ],
      [
        [
          [
            -0.2778405916371848,
            -0.08335824380508906,
            0.156449338127384
          ],
          [
            0.3444538130586296,
            0.47199859813017525,
            0.08052109563686154
          ],
          [
            -0.09048708945791262,
            -0.3396692657007585,
            0.08281156189541644
          ]
        ],
        [
          [
            -0.5734748520813894,
            -0.12768980560415008,
            0.6685566347856009
          ],
          [
            -0.3430462571638339,
            0.276748114182808,
            0.47319550615844697
          ],
          [
            -0.0627173288068494,
            -0.02767507384945603,
            0.05604210849091572
          ]
        ]
      ],
      [
        [
          [
            0.2919316581842751,
            0.10705044181126291,
            0.36222042686452277
          ],
          [
            0.41531297673393863,
            0.6691813452283043,
            0.6961778568548915
          ],
          [
            0.5239782652707456,
            -0.03182222284134392,
            0.07817316218387173
          ]
        ],
        [
          [
            -0.17965168443331125,
            -0.503587680801726,
            -0.3056029079444512
          ],
          [
            -0.47113005321790563,
            -0.37410329777304424,
            -0.1030643626658759
          ],
          [
            -0.6760527401388134,
            -0.218308231904845,
            -0.23580181464186353
          ]
        ]
      ]
    ]
  ],
  "kernel_biases": [
    [
      -0.4868104730220489,
      0.10238109253225171
    ],
    [
      0.062357176693579784,
      -0.03583221025456084,
      -0.33716639100086565,
      0.14158186217427748
    ]
  ],
  "weights": [
    [
      [
        -0.2532246396209578,
        -0.2987255774084634,
        0.027520497105989934,
        -0.1303919810543626,
        -0.030981770973553185,
        -0.23790736348076139,
        -0.1575849785842978,
        -0.16019350674200805,
        0.247888197042159,
        0.20291870501956502,
        -0.2924843576516496,
        -0.2318431549976202,
        -0.2848652401899125,
        -0.14880837132586486,
        0.08577744821459088,
        -0.1269348157278296,
        -0.08307643226238763,
        -0.2566491223409712,
        -0.12136846650610995,
        -0.06671151773744387,
        0.03621244121298949,
        0.13424820232439413,
        0.26432630368068005,
        0.020282904072699635,
        -0.06638705942985565,
        -0.09346904584750652,
        -0.026288513636905073,
        0.0183822247781811,
        -0.04683838049835756,
        0.07334695274147138,
        0.25016565663681567,
        -0.03212252079128256,
        -0.19906739595232284,
        -0.14056111548417402,
        -0.046573669412124034,
        0.1575714387575816,
        0.12298433793295252,
        0.08507562773182842,
        -0.02309702336807675,
        0.04298747326031514,
        -0.18271635001186443,
        -0.043357686619762484,
        0.07522093732907566,
        -0.06550100215465346,
        -0.13559264560511863,
        -0.03492962277282857,
        0.1264257899937849,
        0.3958427332269879,
        0.22103870966807335,
        -0.058285453114333134,
        0.03042126186470048,
        -0.2102050359475069,
        -0.2871831871203329,
        -0.4666622824192422,
        -0.19103459330007952,
        -0.10503645480125232,
        -0.10437637741471682,
        0.019120517689755225,
        -0.12015759782866697,
        -0.3614608433906109,
        -0.09656604988697232,
        0.15816698836633383,
        -0.08009864483782461,
        -0.32359059166441545,
        -0.05045775241333985,
        -0.05085805356281477,
        -0.14846990898859758,
        -0.40383996350332285,
        -0.003922075646972067,
        0.20813196471678022,
        -0.17406207302566865,
        -0.07494418303209507,
        -0.07920507797030897,
        0.09012424445291181,
        0.0824207358617694,
        -0.12927953162950948,
        -0.21635892486495759,
        -0.30885114825137333,
        -0.192574686841063,
        0.12886103672183388,
        -0.054179362504269475,
        -0.23749981538646125,
        -0.161135279732974,
        -0.11780604276944207,
        0.5829212756673796,
        0.22211111274873602,
        0.3245938025116928,
        0.10008337111162967,
        -0.0722810733838553,
        0.1648831980818796,
        -0.21398167433142073,
        0.43669451041850915,
        0.04475868173634736,
        -0.23759069423187062,
        -0.09078883396729727,
        0.030181854029795206,
        0.04209095328693565,
        -0.2993051381925097,
        -0.2947811687275023,
        -0.29319200407724033
      ],
      [
        -0.3052571599707803,
        -0.23879977130563226,
        -0.26154741594861336,
        -0.20121948027314798,
        -0.2321662281043405,
        -0.20866714748298762,
        -0.011273122355214523,
        0.12819494703567566,
        -0.07515547501085322,
        0.0716648605041512,
        -0.10511636125105496,
        -0.1769783972247309,
        -0.05965233498183372,
        -0.1174642094152421,
        -0.002000091214087913,
        -0.28176040045783607,
        -0.4740500088033842,
        -0.07488607212432886,
        -0.20392263886642711,
        -0.22140951795507816,
        0.055790251576816614,
        -0.36363965547383303,
        -0.14520754459911425,
        0.19102439881924096,
        -0.039371042511087265,
        0.10144567376155558,
        -0.33627539994250943,
        0.07205872990846769,
        0.04023533998655512,
        0.012693707647777249,
        0.21467256089069497,
        0.2672877881073153,
        -0.010349354934219875,
        -0.04116124909166739,
        0.14949063572500043,
        0.1973125960877633,
        -0.009946020382677468,
        0.1769413412846996,
        -0.047959165021400615,
        0.13827007257860743,
        -0.08978660574080496,
        -0.09818001508407033,
        0.2726574469450891,
        -0.13908404035767025,
        -0.12946181945269322,
        -0.14480056008486802,
        -0.2007510353647747,
        0.18961571722065884,
        0.07246476639529358,
        0.12421756071412011,
        0.15228960228219643,
        0.016614668995637225,
        -0.29290522917523665,
        -0.045993936936111306,
        -0.05359274698283941,
        -0.13342061649840958,
        -0.3059930557282251,
        -0.46230771905776186,
        -0.0872035113591492,
        0.22652165141576783,
        -0.08147317031248723,
        -0.44086039378340025,
        0.0064966864330673335,
        -0.29592723108227037,
        -0.15178842219797642,
        0.013900654042959506,
        0.04098449100704262,
        -0.034127748122149894,
        -0.26992735737667617,
        -0.1744592267453215,
        0.0738644982535321,
        0.12154129137781473,
        -0.024198020619464987,
        -0.444544049139968,
        0.019762004625251045,
        -0.07837670207240711,
        0.09715237234894047,
        0.47287880608841415,
        0.25726201892921435,
        0.07593570367752799,
        -0.020418383981189153,
        -0.2235426829445782,
        0.06459657574731058,
        0.2091755840902321,
        -0.16965810402379028,
        -0.20577767470824043,
        -0.3773987254762929,
        0.13843091341608102,
        0.24100766801191106,
        0.012917568487432758,
        -0.03243036845623344,
        0.1239444899944782,
        0.2349180496194061,
        0.09615410050854373,
        -0.1685957114245424,
        0.06132261417979833,
        -0.0025599488442193145,
        -0.07629722945172468,
        -0.18981377983469175,
        0.2980010235821012
      ],
      [
        -0.06826013498950376,
        0.06422280320359097,
        0.05501420622925618,
        -0.0006770361282297334,
        -0.06776390851055243,
        -0.07052967530556051,
        0.052219645264118576,
        -0.005747624443902477,
        -0.16324342645913115,
        -0.2135935552828605,
        -0.2822318054243474,
        -0.20231123414490965,
        -0.40210407749990135,
        -0.3773493708225547,
        0.0923744919330196,
        0.11439175138531929,
        -0.16508257750785385,
        0.04759603497343866,
        0.14842170126519327,
        0.392399132050155,
        -0.09413553467654073,
        0.10934672444886359,
        -0.09574187673847404,
        0.22885005967502484,
        0.5694443166314994,
        -0.062230893594014125,
        -0.10140890466763164,
        0.1163417737992182,
        0.03360893034617605,
        0.008657381249929671,
        -0.09818387259743705,
        -0.13117458537706042,
        -0.09074641564328464,
        0.22301158897318904,
        -0.130779354413952,
        0.18102819224996974,
        0.2566849018321065,
        -0.025409488372749103,
        -0.1354423306480577,
        0.02273083324636292,
        -0.3312031148632958,
        0.1681818118279772,
        0.05225435201951656,
        0.10403127513150746,
        -0.03397821215675622,
        -0.06576865081772158,
        0.1786980291402185,
        0.1924569473675758,
        -0.048086620189238205,
        -0.14559937012944488,
        0.2921222682374847,
        0.1744488634276388,
        0.11819640814957676,
        -0.1429169795279499,
        -0.0943891975893644,
        -0.0877665213258338,
        0.18846580935276552,
        0.05112763113308165,
        -0.3123045466737985,
        -0.30230580424607434,
        -0.014683631164449098,
        0.02405681732458701,
        -0.22516052990740515,
        -0.20462153917836262,
        0.09757365771746027,
        0.20170986974419677,
        0.12013032331025361,
        -0.0931421529417416,
        0.11189404669555929,
        0.1922517007677133,
        0.3121569499730631,
        0.11969631200851677,
        -0.2118407946099782,
        -0.048987041939865306,
        -0.07432945954725274,
        0.10149812427623832,
        -0.23313736945381466,
        -0.18201743420441532,
        -0.018909015685036955,
        0.1097087494615608,
        -0.38862883860271674,
        -0.6346936067032397,
        -0.13197667414242129,
        -0.06287968815841383,
        0.1434961863680423,
        -0.3787337349999007,
        -0.592693907702664,
        -0.008819006712863441,
        0.1351763576366328,
        -0.08745134409314909,
        -0.00910062595638646,
        0.11487636685244644,
        0.15100065537263332,
        0.1640597680909487,
        -0.21170634062145416,
        0.10447515728339792,
        -0.349954734343706,
        -0.638936889757864,
        -0.4984948573583851,
        -0.10508682780398658
      ],
      [
        -0.10531555375436209,
        0.3382270727139259,
        0.18720726827210077,
        0.17069302811411743,
        -0.4469075728363642,
        -0.049876455191703216,
        0.09181110204435991,
        -0.12471938097887264,
        -0.19375390563913103,
        -0.503436867895159,
        -0.2700244398095524,
        0.18084502058080504,
        0.22061173041798027,
        0.20438231281831348,
        -0.2451964886414223,
        -0.10476020771205724,
        0.1185890525152483,
        0.09324759978225523,
        -0.15884905427719415,
        -0.38305834037157555,
        0.2712354993616228,
        0.052027995961195145,
        0.006237192299422678,
        -0.36341456663164823,
        -0.4193208621197443,
        -0.12103948569465668,
        0.04765459964357406,
        -0.31789751737500926,
        0.16453205880414842,
        -0.11802911733575566,
        0.08044065182789722,
        0.030759913501672877,
        0.161271033903211,
        0.08743653584720099,
        0.05278980417000384,
        -0.17481266020456684,
        -0.270832434608452,
        0.25882870988055795,
        -0.24139618251852704,
        0.38238817269519,
        -0.0013032537257218217,
        0.09142414551161454,
        -0.10950954074280388,
        0.015485691967370496,
        0.07303138359507047,
        0.06507462843534506,
        0.016967563847499912,
        0.11635849512193921,
        -0.042163414542966675,
        0.018143720133542252,
        -0.001396426836694481,
        -0.2720973822209499,
        -0.15201521364489864,
        -0.2632697393339861,
        -0.28418668518707724,
        0.23907395182184366,
        0.09589230435739615,
        -0.21676895603749818,
        0.024188552906462893,
        0.009661185845211598,
        -0.13678662106439188,
        0.0651179398308786,
        0.19102261867245837,
        0.16689959662651,
        0.1194608484334301,
        -0.29526340695978837,
        -0.17403556674670445,
        -0.14302930395598543,
        -0.2826786488680321,
        -0.19502825097922988,
        -0.3777023051981435,
        -0.23092901027038149,
        0.021458666064931627,
        0.2122071337616057,
        0.05771847644192787,
        -0.13334718915421662,
        -0.12823335097767943,
        0.03942272750106583,
        0.22928396139066273,
        0.42142172543064643,
        -0.1581592495157137,
        -0.7739956997385212,
        0.07015591087815998,
        0.2589092044904539,
        -0.03258552775581751,
        0.07583711602386496,
        -0.14120646410213675,
        -0.302612703554881,
        -0.23095526341852035,
        -0.4587221716270459,
        0.10869112624614062,
        -0.5585066438349485,
        -0.29784269972965544,
        -0.0373314190611203,
        0.27231823669054595,
        0.1613487990712026,
        -0.11016159558331041,
        -0.2032263545025585,
        -0.20821310390488565,
        -0.2275333409630796
      ],
      [
        -0.1613462614518995,
        0.08574524450094982,
        -0.6801175356455741,
        -0.4586028485456052,
        -0.06685938262188294,
        0.009096176461852958,
        -0.10436097297074201,
        -0.32917207168053764,
        -0.30180672887607785,
        -0.007985321064558262,
        0.05908632648352298,
        0.15995539781744078,
        0.12519794145278174,
        -0.06075805470139924,
        0.1157354671524477,
        0.4089403169483141,
        -0.2408945122528072,
        0.06337920661794871,
        -0.12269206734437532,
        -0.07373916584010136,
        -0.36566143099824594,
        -0.4329557897556583,
        -0.28551804585770263,
        -0.19625547137952712,
        -0.06405790537125684,
        0.0007338170642847362,
        0.11911442056070318,
        0.014388445131643942,
        -0.24218477795593735,
        -0.03622238051083986,
        -0.06378008125647244,
        0.10376797303294436,
        0.04116797102248039,
        -0.08739924139004875,
        -0.13499964866467104,
        -0.35532577362290335,
        0.1727711571889771,
        0.12665896979415914,
        0.049858740615928016,
        -0.11084540337788729,
        -0.12140018646661115,
        0.2044377284554751,
        -0.05595967246134502,
        -0.029638147218959254,
        -0.03846544904127999,
        0.24389741934631948,
        0.23631687889226793,
        0.10885911672214564,
        -0.11240873369197793,
        0.0417309158876901,
        -0.020071869234690617,
        -0.25978869662252757,
        -0.16611095508869114,
        0.01276844515095365,
        0.33506529203257746,
        -0.25638247396832753,
        -0.2682265555693738,
        -0.31811702442946505,
        0.2473233751888788,
        0.47090056025615046,
        -0.03853067299994432,
        0.09930397770490398,
        -0.2569483482018161,
        -0.31755284388123345,
        0.17488475352955096,
        0.269072516401998,
        -0.18833761991402695,
        -0.0913457599943578,
        0.30519612499442045,
        -0.18765025322831336,
        0.04023274494504939,
        -0.09303369334494391,
        -0.10657792009414398,
        -0.1602010716470584,
        -0.20340549844815875,
        0.01761430497756429,
        0.36174373171089474,
        0.295991577731472,
        0.43204504094231205,
        0.4893531392352213,
        0.17598171738072152,
        0.26881231012005546,
        0.4106619297557511,
        -0.14504164298949562,
        0.2636799998412954,
        -0.021905464237050292,
        0.16052726870074868,
        -0.14279057205677795,
        0.050430470951378925,
        -0.1292169093262215,
        0.14966379884898173,
        -0.20969299247053313,
        -0.3324562320957232,
        -0.06913585985609529,
        -0.26256613979172916,
        0.08893581882913665,
        -0.1531152012074674,
        -0.2341132447974842,
        -0.24898482808298433,
        -0.07329194274863218
      ],
      [
        -0.18311349735142607,
        -0.5658364916421609,
        -0.03913867727772393,
        -0.07483102429728519,
        0.12729922337812904,
        -0.20162909858780378,
        0.025736770130271976,
        -0.11598592922661798,
        0.21477614074351217,
        0.3431732270524159,
        -0.23128558065864543,
        0.4225228207204999,
        0.10871777554833463,
        0.17367754195757698,
        -0.002025235019208933,
        0.19694896612857704,
        0.04136722905178013,
        -0.09733201921217562,
        -0.11808540160753817,
        -0.143931130241545,
        0.08135805433880533,
        0.3873483966646147,
        -0.07948305480905897,
        -0.22818382076946597,
        0.1119514903821284,
        -0.045960227092016706,
        -0.09009364509920156,
        0.1708058046975552,
        -0.061492446798280406,
        -0.035100512529412944,
        -0.005566011398894778,
        -0.28054159893473957,
        -0.04521899710675212,
        0.15604288666525507,
        -0.21221909036821868,
        -0.20211666403023737,
        -0.0866545122322102,
        0.042755824421821645,
        0.04547018547681578,
        -0.08038636811664325,
        -0.02852088505514739,
        -0.06111435210190633,
        0.33264977312083516,
        -0.05504728407428566,
        0.4406174856635411,
        -0.1280908031009991,
        0.31804573685339804,
        0.1024007880061979,
        0.15030456409653412,
        -0.02628569434471186,
        -0.23894283614200845,
        -0.010076733639621598,
        0.239525675608556,
        0.0371596579419027,
        -0.0029789799296780946,
        -0.023470343762451603,
        -0.004221368761328314,
        0.0005499025749465908,
        0.16706514686012863,
        0.059281423590511924,
        -0.005357508707995246,
        -0.008439144976578846,
        0.17419214884384887,
        -0.5340653469576652,
        -0.25385981081377984,
        0.0854293845974195,
        -0.18116871410774174,
        -0.21589451641487173,
        -0.22844569299044776,
        -0.3811870686079581,
        -0.030579485277900897,
        -0.05095270860720914,
        -0.09292822761354691,
        -0.06797926706730666,
        0.12323231107320404,
        0.12030327667976723,
        -0.07673388761802424,
        0.16215671847031293,
        -0.3611942212058158,
        -0.4276837872796078,
        0.03700347301297891,
        0.01722046311711173,
        -0.2298348063731955,
        -0.271672248768579,
        -0.7787162967313229,
        -0.45121294857134797,
        -0.42609485741986564,
        -0.019188902921643606,
        -0.12983078847954696,
        0.0643919571974222,
        -0.0727087334173677,
        -0.408736455140392,
        0.0010314081209855026,
        0.12608689713670324,
        0.18498579798006212,
        0.06267673024797563,
        -0.1182482049755421,
        -0.13148837021164883,
        -0.11570242639045472,
        0.0433303596606722
      ],
      [
        -0.2679523570076018,
        -0.2960954270180954,
        -0.2577957887928661,
        -0.5083601358280309,
        -0.046706967265932216,
        -0.416662997780982,
        -0.4033032096911092,
        -0.2085847677824128,
        -0.48447998725467467,
        -0.07062059148153657,
        -0.10028039916124261,
        -0.6325565182515308,
        -0.3688022745121304,
        0.3285065105644974,
        0.05075110715417855,
        -0.13468546099065834,
        0.17557727548618207,
        0.05681520981159886,
        0.0700508141713598,
        0.06790736546061779,
        -0.23850315340234776,
        0.001248842110907561,
        0.21954841783782691,
        0.17515652448154187,
        -0.2061475182165575,
        0.08740565555458132,
        0.010974232992594615,
        0.06485554469864237,
        -0.013593753737690914,
        0.022134655615532565,
        0.0464119525903593,
        -0.033857146515274654,
        0.14109409320399835,
        -0.004695970258055305,
        -0.15657074378206526,
        0.2016466778350173,
        -0.19488451412840158,
        -0.080382122775878,
        -0.2702777049455141,
        0.06707467146953704,
        0.19268063700102064,
        -0.02478533510636258,
        0.17569595750232453,
        0.0012061116337161585,
        0.3101701008504376,
        -0.09114036764714048,
        -0.056952791447408994,
        0.029163683944303163,
        -0.09233926685620426,
        0.05836606991085003,
        -0.14142422965493565,
        0.14423653231867906,
        0.08896841095060334,
        0.4310529675407792,
        0.14751533235196146,
        -0.0416636632431654,
        -0.2307212692346056,
        -0.04773071197955037,
        0.10075637431988727,
        -0.11299575206402786,
        -0.17107744623285145,
        -0.06375562442568701,
        0.10209119028717706,
        0.12713546928634437,
        -0.2218505387919103,
        -0.10739585610516998,
        -0.1536424601822185,
        0.14474161719933493,
        0.18232562475737218,
        -0.14691034282150184,
        -0.001499506424769605,
        0.17121502369896394,
        0.03858266373008965,
        0.007101940416575131,
        -0.10784261693364099,
        0.08020648387939207,
        0.15598250082749648,
        -0.0030068637606595625,
        0.04167339138304248,
        -0.21588294013267495,
        0.18112561271295746,
        0.2527830185620764,
        0.10915816318778007,
        -0.15652306809403224,
        -0.7867119181586628,
        0.15924007251448957,
        -0.03699098210670982,
        -0.09164897549783192,
        -0.33293680070861953,
        0.40742264411542783,
        -0.16688722046844875,
        0.06682825357447528,
        -0.10976424970224155,
        0.0685328148442435,
        -0.03340036805755914,
        0.02171483093136035,
        0.1965081672626544,
        -0.31397367390908004,
        -0.20228109108227496,
        -0.2877478122885752
      ],
      [
        -0.08448139421009966,
        0.12722971061920688,
        -0.08163405918907621,
        0.17777141558798962,
        0.07916636963978031,
        -0.12703590761241376,
        0.08702390110730715,
        -0.10843188187494014,
        -0.08579947577864408,
        -0.030140306886362996,
        0.005344778042806647,
        0.011496020462814458,
        0.00286067011390853,
        0.08851003847509638,
        -0.08611216286560874,
        -0.11202552130594301,
        0.028806407985417632,
        -0.0586729046656632,
        -0.09971566525980348,
        -0.1267722853926784,
        0.01363877151296855,
        0.052867135616346886,
        -0.15779558304396596,
        0.2849040081596722,
        0.03897918872671222,
        -0.08215849803604175,
        -0.14663904217546103,
        -0.05590727692296341,
        -0.033817351760143284,
        0.12259215230082622,
        -0.12736708752074438,
        -0.006353739420223077,
        -0.05631982511809966,
        -0.14084148265604662,
        0.09605531668432749,
        -0.07456320597629477,
        -0.20169483949780112,
        -0.01185769674556285,
        -0.08865489889096098,
        -0.16347095813800783,
        0.21177765591130193,
        -0.07924053681715473,
        0.24306481084935885,
        0.052199308474641624,
        0.08214186742740615,
        -0.0772723721862837,
        -0.05490920223358891,
        0.14131746251937422,
        -0.12510597292410172,
        -0.15999149075980296,
        0.014397658883752095,
        -0.27766983822684094,
        0.017552121076664453,
        0.08555232045927202,
        0.055016615811913874,
        -0.09477795936952277,
        -0.1432504832683395,
        -0.1902507769001747,
        0.05812259147665761,
        -0.004488174007821889,
        -0.0935234507073502,
        0.035985967669340736,
        -0.2560948043294159,
        -0.1070488319695503,
        0.037298497587628605,
        0.044232379527166445,
        0.07759210983567633,
        -0.23065472471730408,
        -0.23513337971502773,
        -0.0900057402270461,
        -0.322835805410055,
        -0.1197585116995691,
        0.10307782528521962,
        -0.21180657494747931,
        -0.05197127502999209,
        0.028596838600128016,
        -0.0919325790011719,
        -0.013375431525772025,
        -0.07892803454104345,
        -0.09162947306811006,
        -0.24064702327437226,
        0.0017958375837579688,
        -0.16147471986038514,
        0.0041647762606133246,
        -0.05241489473472803,
        0.0005844441480397665,
        -0.20880844362835507,
        -0.1211238915729808,
        -0.06795637197924308,
        -0.2996340521980718,
        0.07089948943717321,
        0.03847003206130611,
        -0.018417231187308206,
        0.01233027291395515,
        -0.08068393589057933,
        -0.08010374180809787,
        -0.045863368334030666,
        0.03841675858118809,
        0.009494644876788506,
        0.019253742799962476
      ],
      [
        -0.34762633783516506,
        -0.6816539717535803,
        -0.20912345563853832,
        -0.03747170721391577,
        -0.22488467127203932,
        -0.11447384213544601,
        0.22456421868809043,
        -0.32469634884842513,
        -0.22665110138783368,
        -0.15827771849976005,
        0.07641629614678785,
        0.031275461240099944,
        -0.7194862246080352,
        0.2191331412663846,
        0.2909752890009864,
        -0.4279988067439391,
        -0.4660415713126257,
        -0.2220648926816181,
        0.08607822589446616,
        -0.2661149114951224,
        -0.2289879454803128,
        0.4510666550207367,
        0.4568075127721269,
        -0.21154986287025757,
        -0.19832826286297353,
        -0.05913380889486062,
        -0.03706157583598691,
        0.09564528788196827,
        -0.10710956631771221,
        -0.0126393769476973,
        -0.014305832647705973,
        -0.1112479547546624,
        0.19173944737981974,
        -0.30025945226360795,
        0.025105060543289214,
        0.0028747199182369153,
        0.028603911850925673,
        0.05087784877664493,
        0.28377003962522346,
        0.0721185654150841,
        0.1780289624321306,
        -0.27711646601652057,
        0.14766932172206898,
        0.015674555675752676,
        0.007486651420584724,
        -0.19064000032186648,
        0.07952170317279048,
        0.2283342369658726,
        0.02729552330474674,
        0.1652544707727557,
        0.1387057949455229,
        0.12508162984672577,
        -0.07358761209214697,
        -0.19509144128284062,
        -0.1339044258232753,
        -0.2967198664609262,
        0.02831292764099864,
        0.20756015741451211,
        0.029988476496066015,
        -0.09172474655656845,
        -0.16918573592274166,
        -0.4013522748344939,
        -0.37937602997084885,
        0.6679092065633078,
        0.5477352368796149,
        -0.1120453310633835,
        0.31361606659169916,
        0.423227343932673,
        -0.09716226409117965,
        -0.19029495768427743,
        -0.3634026962617812,
        -0.17387794937880385,
        -0.17536356198953953,
        -0.2096060701850855,
        0.015961246022802047,
        -0.11757959102363848,
        -0.138382202696307,
        -0.08781016714090802,
        -0.18664903491612034,
        -0.04835426339812142,
        -0.007250938669013149,
        0.21152999021078933,
        -0.1994842681827673,
        -0.08513023091951911,
        0.02418099584039533,
        -0.0987396151010301,
        -0.21451492173837713,
        -0.19351336356973547,
        0.16481651384242582,
        -0.5290602250137965,
        0.07854759805820485,
        -0.08548390702425192,
        -0.2384118879738271,
        -0.14972484079636786,
        0.3788362332776414,
        0.2761971537334143,
        -0.11714002844411463,
        -0.03132839822103037,
        0.2586790404275632,
        0.20838688439984454
      ],
      [
        -0.40776942942075994,
        -0.3860711571538136,
        -0.011044551555313106,
        0.19186070520166126,
        -0.16311294008054592,
        -0.49725966528775994,
        -0.29220118902554215,
        -0.22717451801031815,
        -0.1904413045803944,
        -0.23573280371195185,
        -0.10598473264020024,
        0.3465402673730564,
        0.46576131693631734,
        -0.19210129961268207,
        -0.23008925753734277,
        -0.158693725912504,
        0.576853284220548,
        -0.25763124972618395,
        -0.15299236714571438,
        -0.3494640587365286,
        -0.09199188909491406,
        -0.15406479489801733,
        -0.3391235880914901,
        -0.09142738669119803,
        0.070536002786308,
        -0.059914157516204464,
        -0.06872971366651073,
        -0.17513117746876028,
        0.31867456965170804,
        -0.07702726948900047,
        0.18174840330861303,
        -0.16581053448749747,
        -0.12613155089851377,
        -0.0707132562469248,
        -0.033563904783073806,
        0.018095781981075903,
        0.0506229736166494,
        0.008226599471230753,
        0.20370920875065815,
        -0.12806867997796667,
        -0.11553314874996853,
        -0.14707445949711354,
        -0.016000118871882206,
        0.14262053930245303,
        -0.11506909262339779,
        -0.29523350095738216,
        0.21259595094976175,
        0.056627815447997346,
        0.40319522901719745,
        0.020094010566251885,
        -0.11594051227641311,
        -0.2901919905258912,
        -0.2207439054122548,
        -0.25053241119741837,
        -0.13507471944593394,
        -0.049405983948967745,
        0.3754170737107168,
        0.13898031726977916,
        -0.13626984426115676,
        -0.6855072140433472,
        -0.11253735028512364,
        -0.14991938646041889,
        -0.08552368213800494,
        0.06960106608638138,
        0.15473314113874917,
        -0.3704843340950868,
        -0.06983113420134449,
        -0.13963557918826477,
        -0.20430955934076256,
        0.14610157037163757,
        0.21774647427568228,
        0.3513662797752639,
        -0.010200040326308347,
        -0.3274461031350704,
        0.13909535736178724,
        -0.273414019253698,
        -0.7496326176680621,
        -0.6618518694983823,
        -0.09319950824856418,
        -0.49863408348811467,
        -0.11529888459334268,
        -0.3503799371940726,
        -0.07206991606187782,
        0.08804900034202913,
        0.09295509394568259,
        0.3099452099346768,
        0.29345669066029834,
        -0.16906072408778444,
        0.006904087085131171,
        0.293486182133205,
        -0.15195464493900915,
        -0.20574708630394062,
        0.13009314604710567,
        -0.052307084059709116,
        0.1286280987056375,
        -0.15248608666339591,
        -0.03431955016834345,
        0.3169310555011965,
        -0.03652716750848007,
        0.1899091901313624
      ]
    ]
  ],
  "biases": [
    [
      0.024609618182961566,
      0.05347691152983152,
      0.018410866345847276,
      -0.06821355360957534,
      -0.008016678913005502,
      0.05428028608760083,
      0.022804050765436415,
      0.06231191402845907,
      -0.00604682399880888,
      0.014355279978729629
    ]
  ]
}