{
  "kernels": [
    [
      [
        [
          [
            0.5183144805361531,
            0.8767337174773661,
            0.6846381904244175,
            -0.1691199671392463,
            -0.6605381005248009
          ],
          [
            0.31607465271507773,
            1.0241255710597637,
            0.7323706600876793,
            0.17579564737919962,
            -0.09246239729539747
          ],
          [
            0.814748576065747,
            0.8140470739466742,
            0.37695433979339954,
            0.4508823819278288,
            0.39901489335055845
          ],
          [
            0.7023320302110031,
            0.4922842310975168,
            0.14335982985930434,
            0.42836249344939303,
            0.5693293953159132
          ],
          [
            -0.2284148569665503,
            -0.25882037600936975,
            -0.8323381921415183,
            -0.8024462202276637,
            -0.6187308164235367
          ]
        ]
      ],
      [
        [
          [
            -0.39967541215724267,
            -0.7300473356134654,
            -0.664751049807978,
            -0.5403319845329824,
            0.22459648357266038
          ],
          [
            -0.18908117553532502,
            -0.3031591350358643,
            -0.12220866229572061,
            0.21615907612425747,
            0.6373957076978836
          ],
          [
            -0.013202047314686376,
            -0.0877221411043678,
            0.28067925116868225,
            0.4414508254833548,
            0.31310296611777894
          ],
          [
            -0.1949601297916194,
            -0.021021001775177395,
            0.36856676442822617,
            0.4329990376925177,
            -0.04101069324913483
          ],
          [
            -0.4264856892594142,
            0.03753284857712765,
            0.5523934025188837,
            0.762252719594425,
            0.2838327635675708
          ]
        ]
      ]
    ],
    [
      [
        [
          [
            0.015740080959888537,
            -0.058245476775374845,
            0.014025793686909697
          ],
          [
            0.0036808845389589688,
            -0.02509470760285291,
            -0.0788590335351702
          ],
          [
            -0.045660853670537405,
            0.059157221705128084,
            -0.04358237380922178
          ]
        ],
        [
          [
            0.03512258989447427,
            -0.1281225032957284,
            0.03224621864988875
          ],
          [
            0.07307235510630007,
            0.0998614012054166,
            -0.07628309171714412
          ],
          [
            -0.14373603169528226,
            -0.04161470881645038,
            0.023554961311875042
          ]
        ]
      ],
      [
        [
          [
            -0.12989973285348652,
            -1.1623195587386432,
            -0.29803410845649575
          ],
          [
            0.8812984974142744,
            -0.542277925822033,
            -0.4181760328796206
          ],
          [
            1.0167698270566223,
            -0.8048120894227451,
            -0.41642601129376705
          ]
        ],
        [
          [
            -0.2141967349519185,
            -0.11755605820362984,
            0.13784524338401166
          ],
          [
            -0.23612677840697355,
            0.134532026004066,
            -0.018098086087086757
          ],
          [
            -0.1735995842274793,
            0.13523040993959332,
            0.3308219069789202
          ]
        ]
      ],
      [
        [
          [
            0.27068296625975724,
            0.22142031282928842,
            -1.2472240686670188
          ],
          [
            0.7321723244413164,
            -0.2658118659494022,
            -1.0138736307772453
          ],
          [
            0.2927081291602454,
            -1.5878694707575196,
            -0.6890721213077995
          ]
        ],
        [
          [
            0.12868715380115084,
            0.06074821446799291,
            0.7802320666804659
          ],
          [
            -0.047325537009695044,
            0.9061886889501378,
            1.3012033570608903
          ],
          [
            -0.2727988260762682,
            -0.007585107353715494,
            0.2986282959480472
          ]
        ]
      ],
      [
        [
          [
            -0.13112225564938582,
            0.2153621122022056,
            0.1296709288261236
          ],
          [
            -0.04890319874780689,
            0.24246371687710974,
            0.2494249354822467
          ],
          [
            0.23569076274367814,
            0.015974463334638984,
            0.6241336489559097
          ]
        ],
        [
          [
            -0.04996407414938702,
            -0.2028227941595838,
            0.08541758008041528
          ],
          [
            -0.35399151919680233,
            -0.6731672568078271,
            -0.08873005072646672
          ],
          [
            -0.10167593781155086,
            -0.41256925840571346,
            -0.325532018120185
          ]
        ]
      ]
    ]
  ],
  "kernel_biases": [
    [
      0.002786812536684515,
      -0.7340408910758432
    ],
    [
      -0.0883526780811484,
      -0.09341721122013316,
      0.8326517075451683,
      0.4660885086424057
    ]
  ],
  "weights": [
    [
      [
        -0.009983159675138463,
        -0.15010864334018784,
        -0.19169711464249126,
        -0.07962572821117078,
        -0.10776555716034329,
        -0.1992432077131358,
        0.10863700588875581,
        -0.0965198621163267,
        -0.11759347004520818,
        0.13889132687771238,
        -0.1826558095911976,
        -0.47397716725419625,
        -0.2045419403552535,
        -0.0960191758529055,
        0.08675210404730403,
        0.015678604118366024,
        -0.1540604195173338,
        0.042636169414608016,
        -0.09707186912158013,
        0.053708482793561614,
        0.342092169433736,
        -0.22871719696728668,
        -0.06914380486073099,
        0.06730738709817387,
        0.018115722763927474,
        0.09210975197636073,
        0.2690604295506824,
        -0.03139188407388602,
        0.2121631315439451,
        0.08289363634474874,
        0.08057482165664279,
        -0.028934800378085723,
        0.04328713990881972,
        0.05972795332103032,
        0.4904438022078864,
        0.07999968939296068,
        -0.180740678942392,
        0.09736590548558945,
        -0.10366264273989778,
        0.12159772385808629,
        -0.05124034571561396,
        0.16218739349036257,
        0.1748972629223484,
        -0.12268735141615077,
        -0.02683482716195022,
        -0.13618786270251898,
        0.16794869635517667,
        0.03059916934193778,
        -0.3793362594911794,
        -0.31411674820612523,
        -0.049264207415802744,
        -0.09613272463903902,
        -0.12471233875309339,
        -0.5678563251714498,
        -0.4878644897226175,
        0.12907747265485334,
        0.1494225285850892,
        -0.18172077394937686,
        -0.1102641843723929,
        -0.25731568282565026,
        0.03749743552966621,
        0.2074554580191749,
        0.1872905284905694,
        0.16257834523156514,
        -0.04131877548196084,
        0.0709650274105196,
        0.014027781510278758,
        0.10997680105689815,
        -0.10676670510885375,
        -0.001197633370386844,
        -0.050429016958585156,
        -0.6933419921620433,
        -0.5589344921532604,
        -0.0857561028113179,
        -0.06064100633929594,
        -0.27017938900274324,
        -0.399665670395271,
        -0.3470795914497284,
        0.1041734097647725,
        -0.2239470091154724,
        -0.3276688471676993,
        -0.11794548300550792,
        0.1797549168311237,
        0.2960350658444426,
        0.3615784525432162,
        0.06369122581315184,
        0.1756322150879713,
        -0.5258759526648381,
        -0.6606297963424393,
        0.3087664150276988,
        0.1610549843065763,
        0.19691921335881113,
        -0.5960783919190439,
        -0.30256844326408744,
        0.19606024283860243,
        -0.152102757321902,
        0.6819740781758598,
        -0.0039581328373838156,
        -0.17378000213075126,
        -0.2864063516754841
      ],
      [
        0.16083172617160452,
        -0.06926426078788077,
        0.052179876776105,
        -0.06418173875918684,
        0.17737260739480173,
        -0.19781752205567088,
        -0.1094398711713059,
        -0.11578228691243195,
        -0.08996699584081733,
        0.058027507940410006,
        0.21501537545651317,
        0.10962493116551786,
        0.28935145742358587,
        -0.16058713178084988,
        0.052874835912921435,
        -0.18820803623606172,
        0.04449814093559857,
        -0.15716406759238566,
        -0.1174097639871055,
        0.1354044499594447,
        -0.006611308380042692,
        0.34847401137287604,
        0.18247644330459628,
        0.11281364640765562,
        -0.08689870822256918,
        -0.027474509273588,
        0.14305608245505455,
        0.10143618048320915,
        0.23586604021660124,
        -0.09392817924599456,
        0.08834734274121686,
        0.08758316674947116,
        -0.06273944493353475,
        0.17145324424052727,
        0.09329507521977262,
        -0.030053350307072572,
        -0.015341713623411154,
        -0.08486996234803218,
        0.1692437098305746,
        -0.21131590480788595,
        -0.07093436428337808,
        -0.320053450322288,
        -0.16209294440594277,
        -0.04470520686685942,
        -0.1545779125176661,
        0.28841326438355397,
        -0.10899924742634302,
        0.04648076731090131,
        0.05650009035292024,
        0.3248062854958334,
        -0.18049034674642503,
        0.028979719024166857,
        0.5334160498107414,
        0.3733831666464023,
        -0.07199015257405281,
        -0.17571557663671455,
        -0.23223150278527308,
        0.29197880335070303,
        -0.193377494620381,
        -0.10537644271328453,
        -0.08965473785744069,
        -0.06936560197823413,
        -0.19344803684348966,
        0.06422928197334862,
        -0.04186243452997028,
        0.13226071760201927,
        0.008176279533126057,
        0.23282444363554988,
        0.045145321380050125,
        -0.09560977224614918,
        -0.301418740896473,
        0.12424223119427566,
        0.37802274516102835,
        -0.2712839284342916,
        -0.14593370525719895,
        -0.36538788266454614,
        -0.44725878455716395,
        -0.1499256692949471,
        0.02947574203638861,
        0.14353659827949566,
        -0.44687906353216733,
        -0.45654837378762864,
        0.13608186026986838,
        0.002423766807193305,
        -0.38679474026755845,
        -0.012239247509033581,
        -0.8190896434724674,
        0.2759360344440214,
        0.3166790019470334,
        -0.39246337118598573,
        -0.5587023297588052,
        -0.40555237668317373,
        0.34235375733764717,
        -0.0418609244744967,
        -0.38357857239175497,
        0.05407071710506105,
        -0.35339056266729185,
        0.27817038574742287,
        0.19285638623743323,
        -0.22643632041054196
      ],
      [
        0.17457573412142183,
        -0.0029130904919302918,
        -0.02889879321930886,
        -0.09531176779138183,
        -0.07567416549033316,
        -0.25737637765671717,
        0.006099660621476727,
        0.15010315814051714,
        0.38291987784322984,
        -0.002030362524429882,
        0.045423422860581604,
        0.0041022323491283,
        -0.14257081097995755,
        -0.1824648253161664,
        0.04295581389511997,
        0.03936141294211254,
        0.08521410731861684,
        -0.05478258396027851,
        0.0032871609809318066,
        0.13564597279436263,
        -0.10890549780484853,
        -0.09230901002114247,
        0.39979248700987163,
        0.009296183964719786,
        0.27585464161519313,
        0.09446664018373183,
        -0.02733477017425374,
        -0.062466802066244734,
        -0.020334036260260882,
        0.09503503349841272,
        0.06656319199082548,
        -0.32427867453513143,
        -0.14479745451355353,
        0.5524002951364264,
        0.17984453484131102,
        0.06297020544754045,
        -0.29632778932843623,
        -0.10713041826935528,
        0.297866483194677,
        0.1289114672657042,
        -0.12753953058204204,
        -0.4466374508936786,
        -0.09221897510006338,
        -0.2818265423100131,
        -0.25139334446644573,
        -0.08407137146512432,
        0.14993141182437722,
        -0.1431474506950372,
        -0.3150866746855837,
        0.3519626932182553,
        -0.03423765440641819,
        -0.21259864795997754,
        -0.33496671424811514,
        -0.6706967529063543,
        -0.38488624363431045,
        -0.4067235304241842,
        -0.16916676514544485,
        0.17340978180564076,
        -0.015401121396694377,
        -0.13646654858017437,
        -0.16665379959884769,
        -0.2279810931802854,
        -0.17780221845519786,
        0.21096892072619405,
        0.3321625036442844,
        0.4646723438749017,
        0.16740844276017808,
        0.1164022549062037,
        0.05615353305389174,
        -0.19502365240063219,
        0.02057457518264592,
        0.1323607725779605,
        -0.4041862157383515,
        -0.45074099090343595,
        -0.6414304390277883,
        -0.24150206949756428,
        0.10504461389235274,
        0.2580493381656036,
        0.1787147787919544,
        -0.18891888422861075,
        -0.13490404460670855,
        -0.4784753524752058,
        -0.3650357901100106,
        -0.15285836653071536,
        -0.1986445479823032,
        -0.3334318776246633,
        -0.3843001128760586,
        -0.6551488561078297,
        -0.09213290050297361,
        0.07729188092796208,
        0.30766406509980243,
        0.2937675629594453,
        0.6067355211888896,
        0.4465616231763181,
        0.054975603614657795,
        0.3361311412521504,
        0.24112633135713668,
        -0.07240961478610636,
        -0.10092595153360387,
        -0.02368650906107327
      ],
      [
        -0.06475026038106785,
        0.027045745326465604,
        0.21812932912171556,
        0.006295569547066228,
        0.30146295736009115,
        -0.044608305227394146,
        -0.0952745257090738,
        0.13977192649009415,
        0.1634379334695348,
        0.022152517294036788,
        0.23137489140830703,
        -0.2658998350282561,
        0.10729610347542236,
        -0.03211465904357897,
        -0.12852152604334346,
        -0.3289172293987083,
        0.11342871029189705,
        -0.02209618163814705,
        -0.06212121118526113,
        -0.1470466951687969,
        -0.14027685774011836,
        -0.14268305013230526,
        -0.17741174925966405,
        0.19371198593283392,
        -0.10975667731481609,
        0.1740864979746786,
        0.005157244884008212,
        0.05989807516106903,
        0.06740286984118553,
        0.02734864634874652,
        -0.09997925940487419,
        -0.017098707789089646,
        0.2566051858743599,
        0.21348418268867314,
        0.05360252739925215,
        -0.21374028729597805,
        -0.07773703710966444,
        -0.12843133404258197,
        -0.39415134030326565,
        -0.21605487465311926,
        0.18071671917379176,
        0.19278016643459608,
        0.0745851548612182,
        0.23363173753939603,
        0.29612521132105984,
        0.1126956126533456,
        -0.06888015443099224,
        0.061459609385363566,
        -0.26170366974899245,
        -0.35205054288009213,
        -0.20937104173973745,
        -0.6162591751799821,
        -0.3348978962084928,
        0.04991476928079698,
        0.004139750200223924,
        -0.3424107208571269,
        -0.4917785319506267,
        -0.1501212522186439,
        0.45174458047688776,
        0.44202695988408014,
        -0.3822825457156527,
        0.02144727793509339,
        -0.38878656383136123,
        -0.2084079412246508,
        -0.003115967515870034,
        -0.6200963404356208,
        -0.49826977706595066,
        -0.29824263805362156,
        -0.0759819917681979,
        0.14612217117017878,
        -0.24418951657808402,
        -0.538000141588989,
        -0.49150007488642217,
        0.09227033175635399,
        0.42473207831714876,
        0.21964718100962297,
        0.22376482525659613,
        0.03988798503531398,
        0.08393402156801778,
        -0.2812676124717172,
        -0.1014755880074149,
        -0.7843669703797408,
        0.02960883323005037,
        0.4686273753227962,
        0.3959571478378478,
        -0.2992163240987381,
        -0.2195692660557761,
        0.49008618916410773,
        0.17389224568529835,
        -0.06664010621747433,
        -0.20070981993193185,
        -0.5226093296592578,
        -0.27232539426995983,
        -0.4280207759033466,
        0.16304610025627045,
        0.213541106956327,
        -0.1628211037098837,
        -0.10299983009460399,
        0.14700995018206647,
        0.02847062739103983
      ],
      [
        -0.046238691510336265,
        -0.0058390185973964176,
        0.04839945237150389,
        -0.24674500264839325,
        0.28341199597862016,
        -0.11776596668463585,
        0.052236866241937345,
        -0.17678689447113344,
        0.02111581011787443,
        0.028604362853660914,
        0.004143241815271283,
        -0.14781747083983537,
        -0.10706741079277197,
        0.08701515802493892,
        -0.1089861790480154,
        -0.29985441649574524,
        0.2574338553912385,
        0.0052825337622547895,
        -0.13810320152510944,
        0.2976513648979191,
        0.020668469627789485,
        0.26169787326470906,
        0.04718592679620758,
        -0.038902923641986296,
        -0.01934704852353126,
        -0.00457954156731916,
        0.10462053257662861,
        0.5087606220999153,
        0.4961272956622336,
        0.28078494702281376,
        0.04933868553019414,
        0.19454733098204835,
        0.24649072400573407,
        -0.049246033250478216,
        -0.07374968603946538,
        0.15033237805447358,
        0.08619905585725966,
        -0.03628305736711529,
        -0.2378412232711734,
        0.060119043792741175,
        0.08693639279199161,
        -0.04672724454876041,
        -0.11906918463515122,
        -0.12624416557435217,
        -0.25439923257507413,
        -0.06624828437170589,
        -0.1035265483032999,
        0.09752711993361816,
        0.0448649990158236,
        0.3404681478833387,
        -0.36512618533814656,
        0.11812464043294962,
        0.2451707394056268,
        0.27579600491297496,
        0.3123738563834644,
        -0.13857030009813606,
        0.31701346882497494,
        0.11836477067076245,
        0.4018630835072567,
        0.21079249143806952,
        -0.03454270528965465,
        -0.21098353478845272,
        0.02211647141988481,
        -0.1396051999566619,
        -0.13572751605848837,
        -0.09956553173712257,
        -0.19076218091624966,
        -0.3624897675588948,
        -0.15719706660130509,
        -0.17838497387374003,
        -0.029171077357442704,
        -0.04272211932576141,
        0.07041698138672967,
        0.12026045337908506,
        -0.252961418661683,
        -0.11428316970484988,
        -0.44093158631278034,
        -0.9430548268981994,
        -0.3867192480266976,
        0.6872381785682621,
        -0.517074118178314,
        0.1668254993740478,
        -0.3140156493121501,
        -0.14331585579143657,
        0.023099895406640248,
        -0.10808026163560706,
        0.8934398280940303,
        -0.2709400337828693,
        0.27907097316830004,
        -0.06207363593448225,
        0.21740085257674063,
        0.00599957265549355,
        -0.35852382431172414,
        0.37353324940467925,
        -0.41809297677262747,
        -0.3093498449932406,
        -0.5861777240010743,
        -0.1611984497649139,
        -0.167424601141386,
        -0.019949919073257542
      ],
      [
        0.23636753525478357,
        -0.05626089937757759,
        0.26961485956019177,
        -0.04150793997022625,
        -0.06722774066672027,
        -0.056638439741094546,
        -0.10748114209304797,
        0.1079401719081125,
        -0.10878081326795554,
        0.07976942328451558,
        -0.1575478259240996,
        0.1962197530255761,
        -0.22869647127577825,
        0.044104598718876856,
        -0.08329571284193428,
        0.08517368635507258,
        0.20008497111523205,
        0.23463000722624075,
        -0.06907583785414739,
        -0.07958083388298406,
        0.004110386061776446,
        0.03617208928262826,
        -0.19630345383464512,
        -0.15160854709487304,
        0.30876971828712524,
        -0.2433105613653926,
        -0.1763521858200552,
        -0.3081589571807233,
        -0.09005939748520937,
        -0.08276802379601379,
        0.08532708582724913,
        -0.09709923446120203,
        -0.003999040550633303,
        -0.6789364137729043,
        -0.4938519292217685,
        -0.12199668945551172,
        -0.09677376712427346,
        0.052874087535392265,
        0.29804587251558806,
        0.3631221987915824,
        0.05427016260616099,
        -0.011913272842569617,
        -0.02386614221921986,
        0.5047426616843702,
        0.05139928322604887,
        0.1176813037735542,
        -0.09511776967340392,
        0.006985853433759784,
        -0.26321289783021995,
        -0.06988640887155262,
        0.4131573068901045,
        0.14033821661674492,
        0.09053735452155089,
        0.1720636519431019,
        0.27495012072637154,
        -0.020306414585081728,
        0.3062120532460022,
        -0.23887596150434232,
        -0.674714500943472,
        -0.438311686522944,
        -0.12765811009693326,
        0.089996065391928,
        -0.21056377484474753,
        -0.4866793994822059,
        -0.4335833367623927,
        -0.7196136415104274,
        -0.6072059860979787,
        0.003981989361888212,
        -0.019518973543049493,
        0.0855505017897397,
        -0.08416963099366756,
        -0.4981253463386082,
        0.10029922121328225,
        0.3249192465561062,
        0.1996027055548921,
        -0.1703672121448411,
        0.3291720024313919,
        -0.18172718187919454,
        -0.06468113467354422,
        0.3576405560050735,
        0.18028803460377826,
        0.29050556947693884,
        0.5059261925944711,
        -0.14783936939299777,
        -0.40533329730407525,
        -0.08166526622006191,
        0.5098268623611624,
        0.2163386166085111,
        -0.3003298085790123,
        -0.7887200705745345,
        0.04393864259826093,
        -0.29470167530671176,
        -0.19949797100186245,
        -0.2116511910304951,
        -0.06199231931245878,
        0.03799967419981787,
        -0.13195582674741707,
        0.23285934785967582,
        -0.3081975049024718,
        0.2673771436855592
      ],
      [
        0.16495988880593865,
        0.09766314769556886,
        -0.06593034617323838,
        -0.08427163001710841,
        -0.13848555633080553,
        0.12051483455038632,
        -0.03977935117679137,
        0.08649277178747494,
        0.05653267970845248,
        -0.19000785816641444,
        0.09353434156702913,
        -0.09188156913168043,
        0.1521457049903267,
        0.030376090815573173,
        -0.17187212545172662,
        0.12982744676917377,
        -0.11702229402696976,
        -0.1194664039999742,
        -0.0023348456641465423,
        0.14839238554032091,
        0.01448275273074399,
        -0.21579367384231138,
        -0.025173822399761125,
        -0.1166829236771751,
        -0.2587592336306657,
        -0.13297962121145426,
        0.13395644878122218,
        0.17672609339419898,
        -0.13990162485515062,
        -0.29437111161880775,
        0.06970551265415972,
        0.11270631870164965,
        -0.42257811424924885,
        -0.578142316840116,
        -0.44217929064985856,
        -0.22093054876553236,
        0.0051085919488929685,
        -0.13219939056242463,
        -0.013069482684193327,
        0.26896820555519374,
        0.10172329541115913,
        -0.07963685270804316,
        -0.2805715055404351,
        0.0193050936088363,
        0.019268354997332576,
        -0.2320822743886953,
        0.27627324537960257,
        0.19505458322502894,
        -0.22266059521489723,
        -0.27363962191328356,
        0.2475002933917708,
        0.16285242245580764,
        0.463052390105537,
        0.23781101253282044,
        0.30328853002372497,
        0.16459223150591246,
        0.20779798533448166,
        0.15408629834951498,
        0.04304866143338472,
        -0.3552625380827574,
        0.25068209555135174,
        0.3149752822022579,
        -0.01952933730630806,
        -0.37760714905770065,
        -0.4822476352454577,
        0.11356018850938306,
        0.09602861824805849,
        0.024268845204459294,
        -0.18096774292137546,
        -0.04578505226897279,
        -0.1797170155708633,
        -0.49248838423549884,
        -0.6367846310958899,
        -0.2918459892834294,
        -0.06204712123919833,
        0.004304332516170317,
        -0.6649745751951901,
        -0.22885760394695273,
        -0.21455199966176217,
        -0.36460440859031884,
        -0.2625658376618989,
        -0.1418985767655501,
        -0.2509269434847889,
        -0.18870880327838435,
        -0.7400258195022524,
        -0.18455598127451012,
        0.0031761197986330154,
        -0.3030655068766621,
        0.0051400629072257285,
        -0.06831959922126282,
        0.022109447993548418,
        0.3825058154466632,
        0.45134416183046266,
        -0.20370189605207986,
        0.1967993218967806,
        -0.5635249102015064,
        0.6659696899117821,
        0.3373558689222689,
        0.20249433412241066,
        -0.1974219457942261
      ],
      [
        0.05033322296688912,
        0.03588120612406941,
        0.101011411665522,
        -0.24824787776049814,
        0.3124185729387823,
        0.032934548204260373,
        0.19457443131016303,
        0.12850656544291397,
        0.1734832908340946,
        -0.019458196858393534,
        -0.02177879187671702,
        -0.023771274919528837,
        0.16833779565508517,
        0.07656274057195588,
        -0.011016409338107139,
        -0.21612671689798754,
        0.10744787645650523,
        -0.2042156934408721,
        -0.12695323578249795,
        0.21315531541044208,
        0.0994041166465259,
        0.02354111089614028,
        -0.08718144552660491,
        -0.09169786282547339,
        0.04828448799307783,
        -0.048523622581621156,
        0.07722738249959059,
        -0.14011379663509363,
        -0.2505487705675988,
        0.21521439615067975,
        0.07482863485242565,
        -0.11678491598248676,
        -0.04465326602208558,
        0.11944159021431583,
        -0.11770457589201956,
        0.10823822339644469,
        -0.12950699053607367,
        0.1467396102178703,
        -0.0192095879730112,
        -0.21377992659018474,
        0.08329117673320639,
        0.3397172817669105,
        0.029955648330190737,
        -0.11072392235794835,
        -0.07959300884161377,
        -0.23827310447089128,
        0.0018511897607235688,
        0.12103471556073392,
        0.23459625605758289,
        0.008265803853512332,
        -0.19723937282073173,
        -0.02869505762837199,
        -0.2308755562699731,
        -0.16822231146670105,
        -0.004987811209523741,
        -0.17484349211172065,
        -0.2480991201750114,
        -0.3649219432086994,
        0.0020742861942960877,
        0.1935547269684355,
        -0.1926697477342545,
        -0.002952575128096255,
        0.5442433790788076,
        -0.06381249421921152,
        -0.21987157204601837,
        -0.06637040843254803,
        0.06246747997438961,
        0.27042150525244296,
        -0.02194549468955229,
        0.1218717118612892,
        0.04527933775888432,
        0.07185689095251123,
        0.2996865476583106,
        0.022788745804713448,
        0.0847462803180011,
        0.1747200811969614,
        0.14614723609609168,
        -0.4444619642549912,
        -0.37320204705261023,
        0.062151355970091963,
        0.32349967082326886,
        0.6458576339704623,
        0.7104280155955213,
        0.16055716600665404,
        0.2381017610013439,
        -0.13590904621161717,
        -0.7888500087742554,
        -0.4258262443180372,
        0.29348574791651766,
        0.1660509058769637,
        -0.18101883913248837,
        -0.14593415576841443,
        -0.056221501874202766,
        0.41078044071431935,
        -0.17455896339525132,
        -0.4972497014686424,
        -0.6745811805231753,
        -0.11037674817620126,
        -0.5828842490475766,
        -0.6174313132932174
      ],
      [
        -0.17442327321228523,
        0.04195044974138884,
        0.07194531094914752,
        -0.12934258200523407,
        -0.15440132115458757,
        -0.1214037526869288,
        -0.04266172806903155,
        0.2582892222088036,
        -0.08502154552432098,
        -0.024133866276152254,
        -0.20661107039854287,
        -0.004002625943745018,
        0.008098718877636437,
        -0.07645356802195515,
        -0.16821308580451583,
        0.025445190867662743,
        -0.012219746750146908,
        0.048981692008668316,
        0.06661599675525082,
        -0.0024919037101441355,
        0.14054951769839008,
        -0.09197505605401726,
        -0.06836413576238619,
        0.08414935850025317,
        -0.11078576107996235,
        0.20188636855216532,
        -0.15841479973957281,
        0.040538571051673015,
        0.2633154758133414,
        0.1478932429899045,
        -0.2982060853634081,
        0.004641348324358462,
        -0.048905107668034686,
        -0.2308033088972348,
        -0.049259839293166095,
        0.04009204273229709,
        -0.03547070739254155,
        0.06442923453926927,
        -0.6449178371983364,
        -0.2999016475275173,
        -0.29692462971573813,
        -0.2183472661455973,
        -0.2847563530933979,
        0.13061196111447207,
        0.26047306953282723,
        -0.08070017038576972,
        -0.1424988432578167,
        0.050449584301295904,
        0.39072129729540317,
        0.07113634448909575,
        0.5513162967778665,
        0.06252111356313343,
        -0.2502953170517845,
        -0.4528938931442035,
        -0.14980276820282534,
        -0.042577554272652696,
        0.1879476356868023,
        -0.22231100453669828,
        -0.06933805362430515,
        0.044446968245741104,
        -0.32270190671889637,
        -0.5003958487566901,
        -0.2855905335836918,
        -0.07266728973757801,
        -0.0615220629393911,
        0.5837825317643267,
        0.4033675107338056,
        0.13097887569816757,
        -0.48122021714468133,
        -0.2553336256524141,
        0.04101298798557566,
        0.033941634384349384,
        -0.4095624338019989,
        -0.0452552616540513,
        0.017345326049526242,
        -0.697428832327211,
        -0.6073665076133454,
        0.12390200530081723,
        -0.028476155979923805,
        -0.14516269484881122,
        0.37697103694407424,
        -0.0032373537662327245,
        -0.15900663860654066,
        -0.5596981709884425,
        0.20059307153960892,
        0.16303732594840853,
        -0.1759697347347255,
        0.6809845485209572,
        0.22664843483640193,
        0.2158721310997966,
        -0.32150441836669474,
        -0.035963659961077886,
        0.5751508015751453,
        -0.5931915497934148,
        -0.783767517695351,
        -0.2349789765160889,
        0.5409724044044595,
        -0.4450633399740038,
        -0.04935486772445068,
        0.1924320871189703
      ],
      [
        -0.13983895127521165,
        0.17016971877660528,
        0.18591086511383162,
        0.07251125406853706,
        0.08211395154181463,
        -0.02334086205881592,
        -0.1756072393456666,
        0.15230799202999937,
        0.07758614820479671,
        0.09507877406671812,
        0.018683778659923038,
        0.21304535754372356,
        -0.14213985854825137,
        0.230252843426453,
        -0.059054117647943265,
        0.03294225535916683,
        0.03604798640686803,
        -0.050463736959638184,
        -0.05268338886910075,
        -0.059176212082102594,
        -8.404637783984065e-05,
        0.09671019588241778,
        0.03379969407878554,
        0.0011509781398478947,
        0.11333458041199375,
        0.002663249314433437,
        -0.1588737623803615,
        -0.12664262972111714,
        -0.14850374473480002,
        0.1097839678316165,
        -0.11150682226631199,
        -0.2413636094727459,
        -0.4632394921141733,
        0.2348879463310822,
        0.1567061493109728,
        -0.10879979135129475,
        0.03885005011678339,
        0.2063780117811751,
        0.08602448388677984,
        -0.04408096369597197,
        -0.12594916985919985,
        -0.04165124067153714,
        -0.2329596602960158,
        0.02436483169940083,
        -0.08631393068022808,
        -0.004912195469823435,
        0.040208838243026485,
        -0.4784756890969045,
        -0.18529899645426254,
        -0.05678340172897505,
        0.1471690448102233,
        -0.1617739050688955,
        -0.8085655955410591,
        -0.5578432449437181,
        -0.5021780350017421,
        0.38101847663043936,
        0.14164992007713312,
        -0.14171343882118356,
        -0.30325927905832156,
        -0.3097135125244059,
        0.22954866571854046,
        -0.0777065272213583,
        -0.26633159179532323,
        0.3523990914348547,
        0.3394991927027536,
        -0.19655084744226825,
        -0.4826961786298503,
        -0.4673470509581289,
        0.28437977736332776,
        0.39755828981483443,
        -0.04872919619835761,
        0.05030088916128525,
        0.180273846906659,
        0.14607531410514485,
        -0.20240441778463336,
        -0.5470300360906859,
        -0.41305448298776,
        0.6164799572585302,
        0.2875223202824987,
        -0.631520752643557,
        -0.18926610633333638,
        0.030114249900638476,
        -0.23723007692192602,
        0.0874091941791359,
        -0.2410258829278319,
        0.4205685468302498,
        0.06102310171732979,
        -0.05107996357915012,
        0.5451073739443699,
        0.34953982172414055,
        0.3037249767159762,
        -0.09281558388072651,
        -0.5270244208568483,
        -0.17971105248646138,
        -0.4380439757799544,
        -0.6543133226342822,
        -0.3143666501958779,
        -0.5072774369879581,
        0.04428635238662097,
        0.07774751165261211
      ]
    ]
  ],
  "biases": [
    [
      -0.2903965544949458,
      -0.19504244571392207,
      -0.038825714731812115,
      -0.19775274884847488,
      -0.3895528069803292,
      0.3021634956083406,
      -0.2345868355571133,
      -0.08284904508571571,
      -0.33592891407479103,
      -0.18986922298350248
    ]
  ]
}