{
    "kernels": [
      [
        [
          [
            [
              -0.030473556152405053,
              0.013973725913997488,
              0.005542041812223456,
              -0.040474031330298865,
              0.07427739799562841
            ],
            [
              0.03246601477757229,
              -0.13936459241697677,
              0.03479547065995924,
              -0.10857706973791538,
              0.08824424838971082
            ],
            [
              -0.07859630782029357,
              -0.01087195596582083,
              -0.037610192693415444,
              -0.06270093139721367,
              0.056937663214586105
            ],
            [
              -0.08834670513543974,
              0.05571238144121742,
              -0.05263824257659763,
              -0.04995945093505922,
              -0.013005511502300166
            ],
            [
              0.034425153914723394,
              -0.08495257025402515,
              -0.17423938844202522,
              -0.09199642528995859,
              0.04231704865560717
            ]
          ]
        ],
        [
          [
            [
              0.5797253499625841,
              0.44885535342483934,
              0.37163710688802887,
              0.2728988733416731,
              0.23055741134616575
            ],
            [
              0.7089821439748233,
              1.1651127519242723,
              0.9089068295550939,
              0.44130163484815343,
              0.18622436951468377
            ],
            [
              0.6090905562430797,
              0.7167732475388775,
              0.3570746261127379,
              0.18177644575507806,
              0.054874695954380964
            ],
            [
              0.15709560085665542,
              0.32977527405633333,
              0.15045326129115671,
              -0.018282410766097518,
              -0.06872914760334808
            ],
            [
              -0.07648553363230257,
              -0.0835074287756722,
              -0.2684756331460907,
              -0.30276878736677143,
              -0.13782438820795886
            ]
          ]
        ],
        [
          [
            [
              0.22773035087460516,
              0.5177192353143122,
              0.7110049592438873,
              0.5501753903466776,
              0.24014905020189378
            ],
            [
              0.16864875237533164,
              0.345253640054188,
              0.5040575399378642,
              0.5700230954759298,
              0.34724460642365573
            ],
            [
              -0.10538004594970489,
              -0.30532479057769063,
              -0.12556365589614724,
              0.2528547184274733,
              0.40815424488018687
            ],
            [
              -0.459604445807417,
              -0.46008199266617444,
              -0.45841736173222336,
              -0.16843486141653333,
              0.18170540146824138
            ],
            [
              -0.30340883972039157,
              -0.33798966390344876,
              -0.378186807645039,
              -0.3755335644953874,
              -0.021571647358650872
            ]
          ]
        ]
      ],
      [
        [
          [
            [
              -0.03187967145014925,
              0.059973960198042166,
              0.03401149975629989
            ],
            [
              -0.003479282714723575,
              0.08358665341046241,
              -0.04382395088853071
            ],
            [
              0.07827900652798762,
              0.020607164094138566,
              -0.07115397735183657
            ]
          ],
          [
            [
              -0.07832009987321643,
              -0.5327473374429144,
              -0.6686197624733138
            ],
            [
              0.286215310132015,
              0.8113362397972935,
              0.5703060900888817
            ],
            [
              -0.20993526701760545,
              -0.49401494692205916,
              -0.14211923594997752
            ]
          ],
          [
            [
              0.3157566514488176,
              -0.20043318534410243,
              -0.4184455990631855
            ],
            [
              0.4134677580216321,
              0.6072204930485127,
              0.30234394369039685
            ],
            [
              0.09242210859395893,
              0.13097382836593868,
              0.08196077519056837
            ]
          ]
        ],
        [
          [
            [
              -0.09427164244306967,
              -0.031025563449238926,
              -0.017469503265965077
            ],
            [
              0.12789809424322948,
              -0.08595658194090189,
              0.005568474015623375
            ],
            [
              0.018004506986463702,
              -0.0373224583624812,
              0.07130804888810381
            ]
          ],
          [
            [
              0.3554075592491064,
              0.26624656233065497,
              0.26828526439360356
            ],
            [
              0.021486222095157822,
              -0.07704148838457425,
              -0.23361810618028983
            ],
            [
              0.103061195135879,
              0.1822057618323955,
              0.09029232788620882
            ]
          ],
          [
            [
              -0.2626904289721218,
              -0.2228411617374167,
              0.004294635522130738
            ],
            [
              0.28224047116571405,
              0.03605349381656704,
              -0.2711342489199599
            ],
            [
              0.1801939523075684,
              0.44325976158721736,
              0.11723894223744874
            ]
          ]
        ],
        [
          [
            [
              -0.07369510268619459,
              -0.012552463204239039,
              0.15424916311361384
            ],
            [
              -0.017111499272234456,
              -0.02052728528564071,
              -0.06543206917950654
            ],
            [
              -0.05947675834735326,
              -0.09389672331478882,
              0.06981122469185516
            ]
          ],
          [
            [
              0.3239040762160228,
              0.07930143184069281,
              0.4913708358941901
            ],
            [
              -0.5450228637253914,
              0.08495538389184026,
              0.47240718055494774
            ],
            [
              -0.7642728568555652,
              -0.9482659296507754,
              -0.29481361449085114
            ]
          ],
          [
            [
              0.33236530124743047,
              -0.08242107902995653,
              0.4498520506934323
            ],
            [
              -0.07909762773663875,
              0.1728404727238025,
              0.43584899587719006
            ],
            [
              -0.32935718460306784,
              -0.43376441342347793,
              -0.4586319537534104
            ]
          ]
        ],
        [
          [
            [
              -0.05680517142561704,
              -0.0035674104575393883,
              0.005747624458745132
            ],
            [
              -0.06442403100025038,
              0.07488609792762135,
              0.06541021410710098
            ],
            [
              -0.0536463178379961,
              -0.09650127828574169,
              -0.0358396205027955
            ]
          ],
          [
            [
              -0.39735961830092176,
              0.1163008580088461,
              0.5100303235947077
            ],
            [
              0.6869883020104695,
              0.5187242574867897,
              -0.05170701240517023
            ],
            [
              -0.2520714190257852,
              -0.7233744685037062,
              -0.7946153062233808
            ]
          ],
          [
            [
              -0.22568266260502948,
              -0.2620355415497259,
              -0.15641283744373863
            ],
            [
              0.4300419446251912,
              0.4613339094689332,
              -0.11309748265214994
            ],
            [
              0.14835432296298787,
              -0.07348475060069254,
              -0.413347622347132
            ]
          ]
        ],
        [
          [
            [
              -0.05758165296870636,
              0.040154093227553006,
              -0.09992875903730514
            ],
            [
              0.0508735578314635,
              -0.1107593131431149,
              -0.020507905320963967
            ],
            [
              -0.0816652038579831,
              0.04283857725954215,
              0.03596743721151068
            ]
          ],
          [
            [
              0.41082538152490106,
              -0.11259380705278024,
              -0.7093343638186997
            ],
            [
              0.5737274633821603,
              -0.11584816709592917,
              -0.5394707152112402
            ],
            [
              0.6105009029035225,
              0.020135618269194997,
              -0.11532689773408003
            ]
          ],
          [
            [
              -0.5720239975122835,
              -0.23713236002529853,
              -0.15974824682450378
            ],
            [
              -0.23921991021734199,
              -0.21907013866393857,
              0.06674734819020378
            ],
            [
              -0.12923126792186537,
              -0.07486353732867065,
              0.128849324901076
            ]
          ]
        ],
        [
          [
            [
              -0.057129222864411446,
              0.03263672602002031,
              0.05831254603125008
            ],
            [
              0.029481565851667394,
              -0.15922520480308527,
              -0.10158554393299735
            ],
            [
              -0.037540266324093366,
              -0.0032960919549803614,
              -0.03332749251478101
            ]
          ],
          [
            [
              -1.0457351633822856,
              -0.6782425083045652,
              -0.13216111049723803
            ],
            [
              0.2415091771273663,
              -0.37209114555229234,
              -1.0915898542552664
            ],
            [
              0.4627707512084582,
              0.30253381818409775,
              0.5597879562515485
            ]
          ],
          [
            [
              -0.12171855476422115,
              0.13564494109756203,
              0.5137231047892226
            ],
            [
              -0.07217726775423869,
              -0.2835153087984862,
              -0.32267523951552424
            ],
            [
              0.4625211816704145,
              0.2605656801356658,
              0.10769475561746668
            ]
          ]
        ]
      ]
    ],
    "kernel_biases": [
      [
        -0.02185657639115171,
        0.06291119540384782,
        0.005219978035055303
      ],
      [
        -0.07543428038882909,
        -0.1542599269645268,
        0.20351619593268308,
        0.23676883008314203,
        0.5072122853786367,
        0.552386963771504
      ]
    ],
    "weights": [
      [
        [
          -0.1644519852301479,
          -0.09661336903414457,
          -0.12935141957256618,
          0.10828758784255918,
          0.04825003402977753,
          0.020900568290542692,
          -0.1139397900827208,
          0.008933718482340912,
          0.13005255525343984,
          -0.15707677686009622,
          -0.0991618147687631,
          0.05878528536944136,
          -0.0899194649053621,
          -0.4238516987541928,
          -0.07519958475668218,
          -0.14894176687906716,
          -0.11663974991808967,
          -0.13268099031605046,
          -0.004118457712412193,
          0.06693724325686073,
          0.10225645130305898,
          0.09052122554503252,
          0.34028449687290113,
          -0.2137514444373173,
          -0.15227789468961067,
          -0.05329955394327411,
          -0.08951034807952037,
          -0.15246899988455664,
          0.05839724128808842,
          -0.04979383021199813,
          -0.10430930412044251,
          -0.2676984260869012,
          0.033016269758444926,
          0.29401421847243786,
          0.18388627964558427,
          0.21583934017316797,
          0.17968780749648847,
          -0.11098407442209139,
          -0.466205223468651,
          0.043424193781650695,
          0.14202636190137966,
          0.23507130555669387,
          0.1168201760794131,
          -0.6214119214885452,
          0.14734829299980892,
          -0.057809873729425164,
          0.1456828653647061,
          0.12555575085339854,
          -0.09965075487220007,
          -0.08446249851752105,
          -0.016416769058578137,
          -0.2638008005111957,
          -0.1571690494175763,
          -0.08688542180442647,
          -0.1433940998292274,
          -0.2017708675440693,
          -0.15340033735265227,
          -0.17048816307392278,
          0.08418286263549496,
          0.0033239388084626864,
          -0.0843940070748894,
          -0.3395070261932566,
          0.04823830892274242,
          0.0658840200511889,
          -0.044063988249263525,
          -0.2594760756641671,
          -0.1880055358376626,
          -0.4452680399173712,
          -0.14895097919943667,
          0.2632242086787848,
          -0.16920873111341078,
          -0.10655790478397686,
          -0.05021258703024116,
          -0.05922830900733575,
          0.10424329335577237,
          0.06075581973853768,
          -0.19239789070762353,
          -0.0009254116420872343,
          -0.3703012410901836,
          -0.18783359755125587,
          -0.05041897195621637,
          -0.1417016603363371,
          -0.29967520963090555,
          -0.16820268128831736,
          -0.3421479454751218,
          -0.15230806917457898,
          0.001829222237762667,
          -0.195841396690012,
          -0.2781099403443694,
          -0.17023531751108834,
          0.01828700386967213,
          -0.2198506079327853,
          -0.09637910028922116,
          0.12271003726374029,
          -0.118480970787319,
          -0.06565659763073851,
          -0.04017832427168336,
          0.14527647268176286,
          0.4444887383771858,
          0.09377929813011122,
          -0.05855333222322956,
          0.032344388072744694,
          -0.05275489358128941,
          0.04359730935695324,
          0.049098728608823985,
          -0.1773280135474944,
          -0.17210052851944152,
          -0.10845197579628903,
          0.1293584641135075,
          0.10221556224389207,
          -0.3398074937092806,
          -0.14851426633911155,
          -0.0318800248343311,
          -0.2086023261946466,
          -0.09313218758726863,
          -0.02630474817492692,
          0.21602075538769058,
          0.19704808893315354,
          -0.32529869778607806,
          -0.058028680104120364,
          -0.17781719113942446,
          0.2759412781269017,
          -0.1286838543683823,
          -0.081255946841897,
          -0.027546821384851285,
          -0.06331323360152952,
          0.03919769041874323,
          0.2914360471333737,
          0.31326664064386917,
          0.05386578547694986,
          -0.1601646915560626,
          0.05042951794530711,
          0.2608250037497962,
          0.08324246095367384,
          -0.073538143116945,
          -0.09663543608283612,
          -0.24349667016740978,
          -0.27791764368011396,
          -0.3073023878997883,
          -0.2739897072578225,
          -0.08206961150438072,
          -0.2585885358586033,
          0.19519987218240137,
          0.1651443481918707,
          -0.22847992863452835,
          -0.19225883347470996,
          -0.22096735764789233,
          0.25421147294142526,
          0.12648554433115763,
          -0.15519918384842146
        ],
        [
          -0.14837769291304773,
          -0.11960220888513536,
          -0.12231927759236864,
          -0.3265878641367367,
          0.07417715563715119,
          -0.07616206818322499,
          -0.2531566985856659,
          -0.17307349662625676,
          -0.2772992643237805,
          0.09916780361638783,
          0.009175175100241224,
          -0.25846531499068087,
          -0.2570208523254048,
          -0.28062843938803217,
          -0.17948618718169174,
          -0.128782928819327,
          -0.28501807421076597,
          -0.29126653274003794,
          -0.2016305484132074,
          -0.1384078782874345,
          0.2077760813507449,
          -0.1480123659768962,
          -0.054420929104701275,
          0.2787763375511844,
          -0.052774265933910644,
          0.18369891932014865,
          -0.1570243192107979,
          0.1776695830290258,
          -0.12396732603615492,
          -0.010378704196890869,
          -0.3340936511096969,
          -0.314749925397505,
          -0.46009532538469283,
          0.4774035104064262,
          -0.28879444126707216,
          -0.10825690928037797,
          -0.4407801015841258,
          -0.15261619383359995,
          0.461071625011225,
          -0.02798837853587202,
          0.25368758082549286,
          -0.06435301826797514,
          0.17935797448787988,
          0.35806293233975184,
          -0.4127234744133119,
          -0.015281083775657683,
          -0.08742050042687496,
          0.06341611961940127,
          0.02334296760685295,
          -0.08193424750611594,
          -0.1043869347115739,
          -0.1629452543084936,
          -0.08517845537267661,
          -0.02330442587759874,
          -0.21542423865760635,
          -0.15573472550534787,
          0.042049122192415016,
          -0.30129803089266155,
          -0.3547536573599728,
          -0.18122289437633396,
          -0.1308625835168699,
          0.059199700326184476,
          0.04642731121840455,
          0.06492493149374459,
          -0.13038854724679225,
          0.020528292970009798,
          -0.08036899931262714,
          -0.013655097191525509,
          0.12201011847061105,
          -0.10653648458739019,
          -0.10515366008569685,
          -0.23488468818586605,
          -0.05480923144076275,
          -0.025100582121124922,
          -0.1514283639183809,
          0.017204531917185677,
          -0.04976493843772348,
          -0.20727489290025697,
          -0.22699125814991833,
          -0.12563729001447252,
          0.04263813623419794,
          -0.097872211027478,
          0.029925425047516357,
          -0.11848132115911075,
          -0.2228769467508623,
          -0.34433862830800976,
          0.17975385245850628,
          -0.18888704738730558,
          0.04444598804338881,
          -0.0030251458810154194,
          -0.06318587778500193,
          -0.1375999150996844,
          -0.055880108820671764,
          -0.010777156371870336,
          0.05246356422393631,
          0.14112853894710314,
          0.16062993030722514,
          -0.035406148410803466,
          -0.17644606908261823,
          0.03265637091847816,
          -0.20566131876124527,
          0.1881588383537251,
          0.17836755534766746,
          -0.04721501371288336,
          0.07223650505995273,
          0.017329431524651422,
          -0.03312123164858368,
          0.27816726164518984,
          0.3444366849636168,
          -0.09288338944328337,
          -0.17172708476665827,
          0.08130016326480026,
          -0.22308924521291643,
          0.3569043248215983,
          -0.25782852174370535,
          -0.0241933031686825,
          -0.32210440692148107,
          0.06946862948403727,
          0.1431897213061886,
          -0.1285565449891577,
          -0.22460793525149766,
          0.10735009200556528,
          0.2396381032451707,
          -0.015862198099607414,
          0.24180465603354745,
          0.03834194154050078,
          -0.07232796019052623,
          -0.1594411817255552,
          0.007047905607874709,
          -0.1572284238484384,
          0.039459918579018094,
          0.019766610462854817,
          0.1180792096623239,
          -0.17408456324080626,
          -0.2404222184897661,
          0.1406398943478186,
          0.20974729434854367,
          -0.06382825064680107,
          -0.21248556462033386,
          0.09208884407883783,
          0.075612044818093,
          0.009653394908147704,
          -0.1676496907785045,
          0.021420693923971498,
          -0.09983537858851073,
          -0.008168151740301407,
          0.1504558536201191,
          -0.14240176143035738,
          0.042874492493017585,
          -0.05715471124353184
        ],
        [
          0.051186432278225995,
          -0.10374217539563661,
          0.16831600159763158,
          0.04651884478191334,
          -0.05309894609734312,
          -0.11096525637516125,
          -0.017345344115923773,
          0.07528567574857233,
          -0.36349620563931323,
          -0.17251261468227522,
          0.17747984804142605,
          0.09945903983099519,
          -0.009189507681402241,
          -0.30503945032163093,
          -0.0921753432301778,
          -0.02407119988763908,
          -0.05662741047374395,
          0.004882498269394462,
          -0.11226597965279038,
          0.19284354507931306,
          -0.01750430877178519,
          0.04062062846705002,
          0.11369818860341938,
          0.21199676973728615,
          0.45622477007762907,
          -0.12607868697280372,
          0.027055938237641734,
          0.06106387135878927,
          0.20319280402365433,
          0.15587897323312072,
          -0.04326876980398101,
          -0.04281681181558523,
          -0.22530891384709134,
          0.026831630494166744,
          -0.3278811498326503,
          -0.1669351995341111,
          -0.1281245097528484,
          -0.5523549303854861,
          -0.46021157230129467,
          -0.18764778825212008,
          -0.0704173710978191,
          0.1629332810018223,
          0.13350961112036264,
          0.019728903928007788,
          -0.37396278300886565,
          0.302923179652462,
          0.3373941382438961,
          0.17478679952731152,
          -0.3417963625537985,
          0.2012638451293923,
          0.05756065190465297,
          0.01926753444474158,
          0.13882978507630567,
          -0.09754631824331825,
          -0.2413626199297484,
          -0.055993057957145556,
          0.27367397683336586,
          0.03170560979299884,
          0.14152400007471097,
          -0.1258069028156334,
          0.21853883940235794,
          0.10404531814907836,
          -0.19573235914697945,
          -0.15134650592351045,
          -0.19336483184846653,
          -0.207913094950256,
          -0.4830000864390336,
          -0.06208317600343442,
          -0.11645641319055389,
          0.34616358534118696,
          0.05333094834518415,
          0.003676405980505553,
          0.04860776312764756,
          0.14387498073723012,
          0.33772339802344215,
          -0.0194658419579477,
          0.04962253870780145,
          -0.10615145621235227,
          -0.2504398343553567,
          -0.15173819621864115,
          0.029686427004704117,
          0.22777860605203734,
          0.046617538147473235,
          -0.20314669060167684,
          -0.2267776411918491,
          0.3017273317215356,
          0.19141362352504487,
          0.10245009509298614,
          -0.3273411856932424,
          0.03731989641873528,
          0.2091266579452365,
          0.13185016269500152,
          0.02124044800980033,
          0.1137601354599172,
          0.19290500118306345,
          0.07200943665335005,
          -0.06534885309920621,
          0.052384532436818274,
          -0.17751286623772397,
          0.010421630862163961,
          0.009130702118233308,
          -0.016198170739851084,
          0.08140002415739955,
          -0.07959151980409884,
          -0.09162465604948825,
          0.07996186982734048,
          -0.2331961752854126,
          -0.12998458806629432,
          0.08169982302720259,
          0.15471120687523549,
          -0.12615001994328687,
          -0.33386185825593045,
          -0.42359349391500883,
          -0.18894064688065276,
          0.1441888145253484,
          -0.04887203124452615,
          -0.47711330470991664,
          0.11033877830369127,
          0.05074196937648913,
          -0.16341605760983444,
          -0.2724147241529178,
          0.05574574065590378,
          -0.20143685138618045,
          -0.2475149781513076,
          0.05794230315807205,
          -0.10896036149265216,
          -0.2044469861343877,
          0.13913627812148358,
          0.1204858727321755,
          -0.036477805567219176,
          -0.030056202903005657,
          0.10030402803519824,
          0.21894860412768888,
          0.27561972911898136,
          -0.14004251660845204,
          0.3250678484717297,
          0.3671950233932888,
          0.27109369415196305,
          0.1488704939508078,
          -0.12687784097249322,
          -0.11660845920098742,
          -0.18600475059702454,
          -0.03297043713882166,
          -0.04253658124644036,
          0.14292614609740772,
          -0.3788055673954653,
          -0.3419374351573376,
          -0.12059785197124961,
          0.10234322476388442,
          0.5913507259059975
        ],
        [
          -0.14211053448235866,
          0.049231385580570254,
          0.2696678815229559,
          -0.06742283547582842,
          -0.05264581211185903,
          0.10233155388237598,
          0.17481009603432085,
          0.019256501161819956,
          -0.2895028493550256,
          -0.27905936395266984,
          0.020415469451868163,
          0.07985920131302936,
          0.14432737031278625,
          0.13109117373054693,
          -0.06794600713311402,
          0.15379062430352475,
          0.08427994281122782,
          0.21649654393154028,
          0.12994453315680396,
          0.010652481697699072,
          0.05606905331544351,
          0.03816494422645838,
          -0.10200671891458743,
          -0.014329807235352458,
          -0.35697130678459005,
          0.06265892270160629,
          0.23762462538254564,
          0.02856363847825707,
          -0.026252357465373723,
          0.025983996420506094,
          0.3159296200273974,
          -0.42643084547269605,
          -0.3464390679418904,
          -0.013484612587348664,
          0.1554497390451211,
          0.027975352349660764,
          -0.5463633292058344,
          0.3891484107006914,
          0.20603675526184023,
          0.0347547173038657,
          0.07836178178370623,
          -0.16424242190764085,
          -0.048073767471149435,
          -0.1427273079528412,
          -0.06542165765418445,
          0.18205016054784512,
          0.0604090777106923,
          -0.1450451979391982,
          -0.12166352857340805,
          -0.10495544085419797,
          -0.007201797650249569,
          0.18570348870552325,
          0.119785151879525,
          0.007054246597010188,
          -0.10583858997347345,
          0.0813855237762804,
          0.3187908701255364,
          -0.13934861436809748,
          -0.4015020715898675,
          -0.5695837777324907,
          0.015652643039733707,
          -0.14040600214733295,
          0.0454895506147139,
          -0.019870217580433013,
          -0.09991823666613016,
          -0.15554465681859225,
          0.31097156879401944,
          0.2326643807218115,
          0.04918577430504276,
          -0.21778864146534227,
          -0.1093560509029695,
          0.16073269231322007,
          -0.13035686185175377,
          -0.21670982362440233,
          -0.49379194526910336,
          0.11016096719980892,
          0.06714234684106782,
          -0.10598640627160438,
          -0.21143312058933378,
          -0.3494641070348607,
          0.06613460076632031,
          0.3689607408618875,
          0.0541010428483479,
          0.02276401378020921,
          -0.20213264398000907,
          0.02704468282971678,
          0.21339875685998325,
          0.11375328417201781,
          0.1504723798951196,
          0.057720773276890326,
          -0.029018548444810003,
          -0.16322486038840023,
          0.015722259544364924,
          -0.05888881133063097,
          -0.3671625736476228,
          -0.12737862915644924,
          -0.15520027264036512,
          0.10956935926013499,
          0.26590547499243977,
          0.0018114308607069137,
          0.11629842114375465,
          -0.055943127757915316,
          0.06990223573763737,
          0.0231397165724894,
          0.07628686763192895,
          -0.11256145804044547,
          -0.2590700916357013,
          -0.28914909290495044,
          0.020030714680079123,
          0.1396056630147274,
          0.06239196502270202,
          -0.4900043010804069,
          -0.4935356420629285,
          -0.26255132654892366,
          -0.40456215725037475,
          0.16787034851099972,
          0.058166583420982895,
          0.051624881010199214,
          -0.10497659743717914,
          0.07675546345504577,
          0.17121211690067836,
          -0.2039712446466367,
          -0.5324451549301146,
          -0.32415531894472766,
          -0.049569411718876376,
          0.11205301040383284,
          -0.13077263451257637,
          -0.055409123313210636,
          -0.1118397988179569,
          0.012176289159916474,
          0.03440350942351939,
          0.122013148036001,
          -0.03359222746255495,
          -0.2714644346435832,
          -0.2864594110632227,
          0.211571598697639,
          -0.06742273216281444,
          -0.18636705367195233,
          0.030726317665966726,
          0.08258256549570292,
          0.13391371391434154,
          0.3556865137774528,
          0.14365721012194038,
          0.022004056867469615,
          -0.20452019788384024,
          0.24819956693471396,
          0.24520634124190652,
          -0.021556352766749297,
          0.013256079627553022,
          -0.3477217074944459
        ],
        [
          -0.06443800704864439,
          -0.0935772259104314,
          -0.03232734417461704,
          -0.3407433957354646,
          -0.07033636239817481,
          -0.24442689397247466,
          -0.33456480250130055,
          -0.5301091712400239,
          -0.4468622068009754,
          -0.043975739158428166,
          -0.03484455840327591,
          0.19499329516492853,
          0.13924786037370432,
          -0.06751554623062324,
          -0.02468010469047078,
          0.24889782715080006,
          0.021295217754987418,
          0.34684485832947876,
          0.3209344157758317,
          0.16063689305834206,
          -0.11635750323142031,
          -0.06806657505443056,
          -0.24218941036367603,
          -0.020868468194273408,
          0.2292862005129641,
          -0.1049448424007596,
          -0.20208215433582424,
          -0.2910282945226569,
          -0.11480577824626362,
          0.04019645658590922,
          -0.07209173056840416,
          -0.059853124359201745,
          -0.22871038765868495,
          -0.23528633508667252,
          0.22091307434652704,
          0.051369310464979175,
          0.3431958956138557,
          0.1032973468680889,
          -0.47603446694239177,
          0.2033076020057093,
          0.013510768440637509,
          -0.005507948218250243,
          -0.043643010575766986,
          0.07970844301905267,
          0.08172158908463267,
          -0.07599420365946405,
          -0.060850871369260984,
          -0.08177874505523326,
          0.08338308358039895,
          -0.09824356625107884,
          0.09793446837854458,
          0.12034596749320531,
          -0.20687130890575708,
          -0.24736683414724206,
          -0.0626253912520086,
          -0.0592921391864314,
          -0.2412116483219261,
          -0.3785338180674544,
          -0.49030887355517155,
          -0.1503292095862322,
          -0.17803672872445708,
          0.10411440278457641,
          0.07581199852848934,
          -0.10904245100002435,
          -0.23111919221115418,
          0.062195903253725274,
          0.06477871153472703,
          0.06172501793427749,
          0.05351968897253949,
          0.23981541358973202,
          0.1182965540169689,
          -0.11616745763265225,
          -0.12668234365576125,
          -0.1825048717455115,
          -0.2804362577564511,
          -0.0651736404773613,
          -0.03290533693340711,
          -0.20360632687214072,
          -0.16199183872302292,
          0.018600252790096868,
          -0.18128426162943828,
          -0.39159193102139345,
          -0.1611165155404062,
          -0.2941055803293677,
          0.21957510477386455,
          -0.2799787708181672,
          -0.006937848971953452,
          0.11884677410632698,
          0.04921928334777602,
          0.12072170169442582,
          0.17019775054573627,
          -0.020998743243949604,
          -0.226467115268428,
          0.26144647946960703,
          0.19802480841743475,
          0.07701456353409485,
          0.0696544528948933,
          -0.2305731217637909,
          -0.2870898356973295,
          -0.018859733190462285,
          -0.014011719863628444,
          0.11547687928779454,
          0.0007764015955291926,
          0.10591250217110121,
          0.011029056372252587,
          -0.13217213098231145,
          0.1751638204175601,
          0.4359466526796835,
          0.22273248784849317,
          -0.019211640786960475,
          -0.012148752481630807,
          0.07715540536234726,
          0.2545264754990775,
          -0.016999687208305903,
          0.20889165361851217,
          -0.028527318671346034,
          0.25684349423166425,
          0.036909491716861594,
          0.05623315326029044,
          0.06930599048661716,
          -0.012015644495823525,
          -0.3062794274790739,
          0.014470206393795076,
          -0.06874345873202034,
          -0.012819870479661906,
          0.13155314209650115,
          0.10788258108491759,
          0.10440685432381523,
          -0.21225827892729343,
          -0.04558787165530188,
          -0.026223992518887244,
          -0.11574671684825093,
          -0.15058405463306412,
          -0.40005270062241827,
          -0.43744063280616297,
          -0.006791088101665688,
          -0.12479311850308565,
          0.07983193937687208,
          -0.322500513521946,
          -0.07691642409775463,
          -0.05376441585230616,
          -0.07224487536536592,
          0.029191121806662803,
          -0.2114845542587391,
          -0.037688901546990235,
          0.08463034302873848,
          -0.19639227099928255,
          -0.20478959517714898,
          -0.2494006077633754,
          0.08074666279788349
        ],
        [
          -0.04634049728048702,
          0.06877915477629842,
          0.10037574326552069,
          -0.16963084730607278,
          0.009656132366977294,
          -0.3343590795295283,
          0.02860660355977396,
          0.040610213804215305,
          0.3267246833312571,
          0.14751922030712825,
          -0.12984657400175156,
          -0.14669734403388393,
          0.08481385872967517,
          0.3545564303224629,
          -0.0002901533210833658,
          0.37556583450945724,
          0.18595638711968382,
          0.010462050923975643,
          -0.06882531773403269,
          0.012284180334770425,
          0.055241981717535256,
          0.3486669755361498,
          -0.12876204195998536,
          -0.18314206284555426,
          0.029072780986995058,
          0.18995154723849436,
          -0.030047853164061535,
          0.03398880457953261,
          -0.3034687332104602,
          -0.17888812553344902,
          -0.03967873733160952,
          0.2608309830028435,
          0.33648443844626663,
          -0.03893055440177023,
          -0.3893084412144626,
          -0.0952413943292279,
          -0.12655079590899476,
          0.03319143606824406,
          -0.13908323261516367,
          -0.4832614221726346,
          -0.047710122970880196,
          -0.3799188362423718,
          0.04980718651337567,
          -0.3161357311142336,
          -0.4147429996107452,
          -0.1378096747998617,
          -0.07595955380069774,
          0.008257372377621718,
          0.07769243060328863,
          0.14883922147940995,
          -0.17512885630341576,
          -0.39588541201327804,
          -0.22436014841099605,
          -0.01942182172233387,
          -0.008306387086760689,
          -0.29031619597067343,
          -0.19074213921172856,
          0.007429132616717825,
          0.0535764109267079,
          0.3209959342930705,
          0.15938409065725112,
          0.003421699296416462,
          0.0026619769439973594,
          0.3591930570823523,
          0.36019601017979996,
          0.2683682177282621,
          0.33269791704509916,
          -0.01925917497058947,
          0.05901456030119911,
          -0.22157091618826022,
          -0.04571659206407921,
          -0.053118068755322656,
          0.006185099108913582,
          -0.17387874845428564,
          -0.3261595811822473,
          -0.42227767688030793,
          -0.2165675485101309,
          0.07086075295468607,
          0.43186636095289005,
          0.30378178811770473,
          -0.3083592304217038,
          -0.3078432772974096,
          -0.15179223101576672,
          0.13456049421003505,
          0.4636441478528985,
          0.03271256906201897,
          -0.04517350282155388,
          0.04625345698524733,
          -0.13236350402977942,
          -0.1396837125014718,
          0.10114997839418638,
          0.08150071593581369,
          -0.13606052835525895,
          -0.10861659622083429,
          -0.24394916344774537,
          -0.021247790279950936,
          0.129327841188093,
          0.0799214303590849,
          -0.06226168038104088,
          0.003350024137174049,
          -0.23127469012585533,
          -0.0734966063457747,
          -0.2592051626564955,
          -0.26511637729751786,
          -0.009014113676895212,
          -0.20477580967701434,
          -0.046444363763201636,
          -0.07802844156334426,
          -0.35613695806872736,
          -0.39374408628274005,
          0.06284146015121712,
          -0.1285806682735014,
          -0.036226955819328485,
          -0.0964354320091809,
          -0.05963932032095108,
          -0.3390295579421775,
          -0.2976529753812261,
          -0.08888989790214953,
          -0.026437914904020615,
          0.1635224587391934,
          -0.08760280643029639,
          -0.190073304150244,
          -0.21626046140130453,
          -0.09737844005234889,
          -0.12779624455304284,
          -0.010350626680064508,
          -0.11864587554676798,
          -0.009814809642604175,
          0.2235732431333166,
          -0.1488024147686942,
          -0.28639215928969247,
          -0.45649172145309413,
          0.09595538297307175,
          0.26354248345872344,
          0.08600104505585753,
          0.03427935534349593,
          0.0852021760628475,
          0.1300002707237348,
          0.1301671814362286,
          0.3092014654466712,
          0.14779214397594778,
          0.43406920177345415,
          0.09096793230763724,
          0.0019360247395484886,
          0.07772858619643418,
          -0.14899039218736002,
          0.031435889714378856,
          0.22824478064338247,
          0.00976609233961911,
          -0.11232254796847105
        ],
        [
          -0.21439358282178897,
          -0.06572597263891136,
          -0.17900703464493123,
          -0.13004598566310752,
          0.13385114990713992,
          -0.10510803382966044,
          -0.17249678322930057,
          -0.2603773674500721,
          -0.17562536067932644,
          -0.07125020790760539,
          -0.2870951379012839,
          -0.19713872125838997,
          0.11634599299242443,
          0.30182587151341206,
          0.3101112026025602,
          -0.2228823050424201,
          -0.19957089361664734,
          0.029104951003142095,
          0.13772686955489744,
          0.07631549012137245,
          -0.33610870096027406,
          0.008110171369472128,
          0.062155277871899464,
          0.09030151854895678,
          -0.08048980824825094,
          0.05325062299670679,
          -0.09804372481884029,
          -0.26892145386006,
          0.1012818957312413,
          0.017949818734303225,
          -0.0928112196119488,
          0.022194474987730792,
          0.059684594190429034,
          -0.09307094811900969,
          -0.2135109926976592,
          -0.05687820683291178,
          0.16097358879546536,
          0.0077237346458871,
          -0.1097886939861588,
          -0.28134150441804173,
          -0.12423457911398676,
          0.025534719669002948,
          0.08495055094435376,
          -0.1980276205506272,
          0.1075073403554252,
          -0.15120739028714847,
          0.027744960514955296,
          0.39532496304101644,
          0.16347458190262268,
          0.2517628522514283,
          -0.08690425985556406,
          -0.3336711906903839,
          -0.15481613764643362,
          0.032443569709700776,
          0.1967207331163134,
          -0.05229291618189582,
          -0.42992646015567415,
          -0.25282992611413624,
          -0.2128220380029428,
          0.18270096590093393,
          -0.25211122589981433,
          -0.456967669282019,
          -0.3072371956063661,
          -0.008971176628671775,
          -0.17123054247682576,
          -0.0470180023446106,
          -0.32022636000551946,
          -0.1477622465252671,
          -0.08113587813639143,
          -0.08509492452277863,
          -0.009026235165526041,
          0.21365353023438524,
          0.05933005253438491,
          0.13828180185980304,
          0.04257614789708639,
          0.1672104542565797,
          0.054172797247746714,
          0.1049721844184603,
          0.043989283157582874,
          0.1780579320713558,
          -0.005922864054450661,
          0.1381380263623659,
          0.045241449976564,
          0.34466249189398923,
          0.0900690822533493,
          -0.05017981220158731,
          -0.28107292568908376,
          -0.0380928865458661,
          0.14769081479508978,
          -0.1470759111348625,
          -0.0161284178600335,
          -0.22669335910110497,
          -0.06695956810249548,
          -0.03390769680977468,
          0.01154309116694473,
          -0.09295363265136722,
          0.005171960352334674,
          -0.013313642630865307,
          0.14256883705747658,
          -0.09217234096195112,
          0.00037235432069401825,
          0.06666653219884401,
          0.005264648212349124,
          -0.0897817953080053,
          -0.16467595889415665,
          0.027704881428942212,
          0.11626270234570593,
          -0.03917213320495129,
          -0.23404499367730452,
          -0.1313059836875816,
          0.1521795154056299,
          0.31712894456125307,
          -0.09858135854394975,
          0.0006842046315418152,
          -0.12513725436016107,
          0.045173647022697126,
          0.17753854917241518,
          -0.09790516013790354,
          -0.061973445966096226,
          0.04080274559236276,
          0.18991802339026273,
          -0.09501387330449523,
          -0.15984769160307458,
          -0.031986707798330176,
          0.03968736357241841,
          -0.059738604162846175,
          -0.31035798160627226,
          -0.17113284926516925,
          -0.20903833509215425,
          0.05772693625967333,
          -0.005465929889223492,
          -0.18783715861572794,
          -0.3261152736848948,
          0.222160766778709,
          0.519850729736252,
          -0.16262590580831196,
          -0.27282681006070886,
          -0.19365252064866564,
          0.28824155770818116,
          0.31785961748361513,
          -0.2934018217593348,
          -0.2755067800970805,
          -0.2198924446464166,
          0.02098339331546589,
          -0.08155538944479855,
          0.16052218299987836,
          -0.11080407374879518,
          -0.08207557253195215,
          -0.11441340846812706,
          -0.051675931600003805
        ],
        [
          0.001751775758047766,
          -0.022728888762245495,
          -0.02543115315731108,
          -0.04093038684104225,
          -0.3296957368203973,
          0.03334207296160552,
          0.09512378512657886,
          0.15869034628016623,
          0.2564240931189362,
          -0.04598345900389721,
          0.0056536673247671206,
          -0.06835659239454336,
          -0.3762877460497096,
          -0.13182495612012654,
          0.0407813891544548,
          0.0431098970026964,
          -0.12168150044845026,
          -0.25980584567451936,
          0.09734604271092366,
          0.24547610099117623,
          -0.18958563350412785,
          -0.44593725591759126,
          -0.436134327566986,
          -0.26683059008034515,
          -0.13397106707490902,
          0.04318287819044,
          -0.16455481268286778,
          -0.03015470341158294,
          -0.10838474592420533,
          0.029243040283710945,
          -0.037302410291802125,
          0.08792421253242694,
          0.0339353997483197,
          -0.01580016658164734,
          0.24693804394142918,
          -0.187997085217865,
          -0.14619474711845168,
          -0.07718143035125725,
          -0.14098845810763203,
          0.1834551082549813,
          -0.1682275565730994,
          -0.02859145677444735,
          -0.21928315331485243,
          -0.00792685675887031,
          0.3072463388247209,
          0.004345902284430124,
          -0.3083971012771503,
          -0.2978980209953364,
          0.045930116160230704,
          -0.1956279496321737,
          0.14501747384265476,
          0.03181393890592279,
          0.10282648349224346,
          0.17844894408782996,
          -0.061413804914181,
          0.19044578801701834,
          0.3120529957389598,
          0.31547528442951084,
          -0.04864861120553487,
          -0.13762781259097756,
          0.13634881203302518,
          -0.0570412388783076,
          -0.04129592712946266,
          0.3223914687110064,
          -0.12075914342407185,
          -0.00016126995700386753,
          -0.08282126089619009,
          -0.5706084315397038,
          -0.2665228601224774,
          0.018086353426976214,
          -0.282349244191655,
          -0.2813311773133668,
          0.015213206509565522,
          -0.3725818348774718,
          -0.2807580575014373,
          -0.1608252825193641,
          -0.04523722854357302,
          0.05668542905644241,
          0.016169539034392486,
          0.06592907490715759,
          -0.15373836752412554,
          -0.1366773529100151,
          0.12182216147988431,
          -0.0805219756379814,
          0.006551680269182228,
          0.1382576951375442,
          0.3051638814889743,
          0.05669751940986271,
          -0.060756711759220025,
          0.06875059448615255,
          0.13074860626144832,
          0.10894119832908865,
          -0.07290582690086665,
          0.19912083355639712,
          0.26236253529803016,
          0.0714172013922307,
          -0.040301334569419464,
          -0.25402667495670384,
          -0.05284075071890267,
          -0.11112786484862826,
          0.12293212271731317,
          -0.01684660375958745,
          -0.10464656003313828,
          -0.2214922133694542,
          0.008737686950151575,
          0.05939115326924785,
          0.3517050498553062,
          0.21064925950977414,
          0.09962650922059109,
          0.07387023880190739,
          0.17890232474662424,
          -0.20609798860497142,
          -0.30598826728033207,
          0.14143964991031954,
          0.030961809619618825,
          -0.20763736934693666,
          -0.09129522657240312,
          -0.12238912485337793,
          0.06431006356489317,
          0.2809573309677267,
          0.053714259403970524,
          -0.0824643114401636,
          0.12022268913544358,
          0.0133472802363698,
          -0.15301403337842256,
          0.1022768961686931,
          0.006946868259249362,
          0.08119162532697784,
          -0.14772708252931266,
          0.029308159377153926,
          0.18542322226369798,
          0.08073860294853251,
          0.30282307318658863,
          -0.027430769755719443,
          -0.06553585610987814,
          0.13460393229618,
          0.28415642003737457,
          0.08785569991617931,
          -0.12572449874284727,
          0.18552364311877068,
          0.02428788677067011,
          -0.035349014544780503,
          0.12688701140759753,
          -0.020044532733487257,
          -0.033157354681262886,
          0.12255397306370519,
          -0.3640564784523399,
          -0.23500991114994213,
          -0.15691364841300018,
          -0.3457649469267572
        ],
        [
          -0.12113039523187677,
          -0.10086535403116788,
          0.2066193096172011,
          0.07696436712812706,
          -0.03332957844807636,
          -0.08711176399840857,
          0.17548733296631724,
          0.16519902396950384,
          -0.014306537136481943,
          0.014000804174400586,
          0.003238302386254451,
          0.1985858209007564,
          -0.023060095561419997,
          0.18229464135393464,
          0.04541167495420547,
          -0.15246838557273587,
          -0.006846371184894337,
          0.22635062449985888,
          0.3086177050969954,
          0.14956087122763315,
          0.19908028758332386,
          0.16636482746982223,
          0.16926626398844527,
          0.0867983575269613,
          -0.2026576869799144,
          -0.044649817002595356,
          0.0726719254114682,
          -0.04174125850910807,
          0.201225480282418,
          -0.002073850334271633,
          0.4294789848213228,
          0.2918899692654046,
          0.18794050368158885,
          -0.449656743762248,
          -0.22579915879160498,
          0.04268940166942887,
          -0.10547278599875612,
          0.18834214924369477,
          0.1468038158204712,
          0.062127965515120814,
          -0.0821030046847786,
          -0.21357901008192925,
          0.41463989936099765,
          0.009385807717012362,
          -0.16747351350406087,
          -0.13623255536555132,
          0.20364348530791443,
          -0.02159676062803192,
          -0.4318532226562477,
          -0.07211320485420535,
          -0.10420043242906882,
          -0.12670063390522482,
          -0.0799861031397097,
          0.011724722071581102,
          -0.05635039802267933,
          -0.11048526957097679,
          -0.2540124214010025,
          -0.12145459700998719,
          -0.054545039716754486,
          -0.45368464515612966,
          0.25364753469244905,
          0.2239400409559997,
          -0.248563838240578,
          -0.33706192757862347,
          0.2438119564060913,
          0.12699855107667263,
          -0.47190219473146716,
          -0.2823779924019109,
          0.4830433002395247,
          0.07915032614210302,
          -0.009266736854123703,
          -0.071753244222936,
          -0.1810072275160045,
          -0.5188539422770941,
          -0.26524740522178075,
          -0.09078872012385196,
          0.14356788980203325,
          0.2284551837409405,
          0.014014140932610114,
          0.08917317596102242,
          -0.5287882086147987,
          -0.20257749175014989,
          -0.23526913242521583,
          0.06113517833614958,
          -0.040849723285371,
          -0.2425131021900905,
          -0.444447719597552,
          -0.10969676731135619,
          0.3537641435282074,
          0.4053074484069899,
          -0.12452301354656801,
          -0.048671895145332725,
          -0.13123559828506984,
          -0.20384282438840617,
          0.05519225264469392,
          -0.03917617838860763,
          -0.23429390068668565,
          -0.1665739337611962,
          0.009193473924597819,
          -0.0008077445846961336,
          -0.42571656131878083,
          -0.3757318806628527,
          0.015422738721484882,
          0.19279511283848438,
          0.013720487841234452,
          -0.116632290167709,
          0.15097730816408148,
          -0.27976558919568034,
          -0.2580131152505462,
          -0.08494020944314683,
          0.0008004966493576915,
          0.11604085484058714,
          -0.09685746052179282,
          0.011657059233134497,
          -0.21858937385779534,
          -0.2293611108625363,
          -0.40672002557750403,
          -0.2839359882505157,
          0.04897852983574713,
          -0.008874030119302458,
          -0.23726763855398483,
          0.1071590353193812,
          -0.31037851915560327,
          -0.05991757823587943,
          0.25476306755405337,
          -0.3778885902372556,
          0.14320233337160668,
          0.11007006978061414,
          0.009973229903750973,
          0.0970461489707348,
          -0.27640823382341406,
          -0.14629495232133433,
          -0.12188353513229191,
          -0.05467662312095881,
          -0.12240914909401657,
          0.003822688878033573,
          -0.04272120846444615,
          -0.0012251218698377856,
          -0.3809586492655478,
          -0.23263983664215868,
          -0.0675546389276201,
          -0.45709456971413165,
          -0.39948121556319033,
          -0.19989266391712984,
          -0.023705543489597754,
          -0.5239061222693588,
          -0.6550277370194875,
          -0.2464712345192007,
          -0.07705457650765388,
          -0.421378453819624
        ],
        [
          0.06929159838334017,
          -0.025210758497310883,
          0.07125040470851493,
          0.23513497002312012,
          0.017542281591241292,
          0.07491203214520653,
          -0.034837726787484785,
          0.16724036962914654,
          0.05837008312115249,
          0.060379140019286265,
          -0.2756046668959139,
          0.15082679575849414,
          0.30078807663101076,
          0.0715908977112487,
          -0.05286134010745411,
          -0.12587362413186934,
          0.45186758465784144,
          0.0074871015143605476,
          -0.2786643998353701,
          -0.5030240456144323,
          -0.14051313688881667,
          0.008236531492099651,
          -0.3471157545869387,
          -0.34008627695065596,
          -0.3171637905023448,
          -0.06739440718440343,
          -0.19462943632848237,
          0.04471916301157556,
          0.1801892016873427,
          -0.11729724183924231,
          0.01526345984888147,
          0.14225470032274043,
          0.38682686058536503,
          0.0959332038533718,
          -0.24404832774656016,
          0.3364423269968742,
          0.15131907601348776,
          -0.13121540574402782,
          0.035347445257982155,
          0.10840618366972152,
          0.11646028083391637,
          0.009094803977587393,
          -0.14167378311839146,
          -0.25029754446359925,
          0.18111844453549494,
          -0.45182861875548525,
          -0.1772484961204734,
          -0.19115792536750575,
          -0.20289172119761764,
          -0.20971534834957736,
          0.1743060447571783,
          -0.0002293956478630999,
          -0.12417127672008396,
          0.029807519381929028,
          -0.20147031188981063,
          -0.44045386828060046,
          -0.43528634799102706,
          -0.08715861401465694,
          0.09152932327182682,
          -0.2438582080503795,
          -0.24162964878066215,
          0.0316377516165122,
          0.10852539828396464,
          -0.42858062553458814,
          -0.19644216666295672,
          -0.13781920240912296,
          0.4986829861642943,
          0.2249195579344555,
          -0.1642839307538982,
          -0.3334761396551448,
          0.014213870848367184,
          0.2110208762735145,
          0.0008292270546315728,
          0.17520785977906614,
          -0.125716990634937,
          0.00323632517075535,
          0.0392502416764287,
          0.08299441136131765,
          -0.04442056269508535,
          -0.12137672551801863,
          -0.23873770332521835,
          -0.10913577393733484,
          -0.043808455963035155,
          -7.984878406525887e-05,
          -0.25601117016037606,
          -0.1371046202594829,
          -0.19670042851491093,
          0.11639438460301982,
          -0.11837589419642758,
          -0.005506733855055905,
          -0.19131179117473437,
          -0.09397556115440801,
          0.1720700250157425,
          -0.12101338137921512,
          -0.126832254600128,
          -0.05213872143139217,
          0.25815001568509777,
          0.2629643669462182,
          -0.21056311558738458,
          -0.3866615750496649,
          -0.016176207983602604,
          -0.40687710487457873,
          -0.18241455125245046,
          -0.004385621262295636,
          -0.1734409774184456,
          -0.22081596199651857,
          -0.6446647242855789,
          -0.9035860842967985,
          -0.2764605156286281,
          0.14530226780169017,
          -0.09908292891665771,
          0.2511565033071368,
          -0.3852935399698945,
          0.08403695130195601,
          0.1094500415440348,
          -0.0826501466114674,
          0.18874587376142662,
          -0.09552909088468672,
          -0.0954640789137243,
          0.05001768997325902,
          -0.10237336378826002,
          -0.4744685950723342,
          0.1542760554028585,
          -0.10297649499554627,
          -0.17021921401070203,
          0.03764244501626988,
          0.18110847499414787,
          0.05265783965163964,
          0.17311517150357578,
          0.01870737601789496,
          0.009936524336719191,
          -0.2886282393117913,
          -0.08005536276973897,
          0.27646498355397436,
          0.04039421897196374,
          -0.6758337661807348,
          -0.31516960496314544,
          -0.12752233764209295,
          -0.12649639817616018,
          -0.3538615667242086,
          -0.27945042626317,
          -0.09384005946420147,
          0.24906672262528431,
          -0.2242342981913799,
          -0.5208778355131447,
          0.09525707977360325,
          -0.009032023209636121,
          -0.14183289387117382,
          -0.21710359307799204,
          0.07627492259683756
        ]
      ]
    ],
    "biases": [
      [
        -0.07349456551698448,
        0.04977321960032083,
        -0.09878282631636626,
        -0.2192925174001801,
        -0.12177809407435376,
        -0.16657264526734042,
        -0.038515992683759055,
        -0.04919726400494548,
        -0.16236174034541193,
        -0.1357133903374913
      ]
    ]
  }