{
    "kernels": [
      [
        [
          [
            [
              0.0696367750023319,
              0.09655941958886087,
              0.3213422646378263,
              0.34336325504383153,
              0.19503469792798925
            ],
            [
              -0.39925582100421503,
              0.21597836202521975,
              0.30533793193017666,
              0.6092726834368338,
              0.6474519958852601
            ],
            [
              -0.5209875501540516,
              0.1388473033047598,
              0.5725161774198475,
              0.761395063828071,
              0.5766705717638584
            ],
            [
              -0.15510894603936998,
              0.37848179465003573,
              0.46919279591276536,
              0.31197234783312244,
              0.2299897566087661
            ],
            [
              0.11086309753165617,
              0.22105616194215635,
              0.1412832468331602,
              0.11889981751766843,
              -0.08192248339260493
            ]
          ]
        ],
        [
          [
            [
              -0.33968981768783085,
              -0.4184989483873737,
              -0.1096851455709859,
              0.35903305741990255,
              0.3722608176578219
            ],
            [
              -0.45152335261896337,
              -0.3686582703703617,
              0.0794881700770174,
              0.3363625229668736,
              0.4000314938492955
            ],
            [
              -0.5332126890542752,
              -0.3394267131922116,
              0.19795045744215511,
              0.4001824414756533,
              0.3487355134546878
            ],
            [
              -0.5488077794079529,
              -0.24888866969762174,
              0.30164429265209497,
              0.3361880156063257,
              0.07963753414143943
            ],
            [
              -0.5024420645623919,
              -0.16618439315640576,
              0.2897747276806121,
              0.3948821258347389,
              0.04030893356217863
            ]
          ]
        ],
        [
          [
            [
              0.1898801211464169,
              0.5027433485372247,
              0.27990215408330643,
              0.012295728993197539,
              0.08090195689814479
            ],
            [
              0.32081476102868534,
              0.8053512917815066,
              0.8493797348652913,
              0.7533261612675155,
              0.2818232467656237
            ],
            [
              -0.19191395143249318,
              0.05591592801255424,
              0.3537290013321118,
              0.46042367870936074,
              0.38749918160717006
            ],
            [
              -0.6791043853905678,
              -0.5500625359386903,
              -0.359484228861566,
              0.010272268054870937,
              0.3272390712975322
            ],
            [
              -0.6250293429417978,
              -0.6407298674998008,
              -0.5147801767403299,
              -0.476986978330083,
              -0.016499451227659185
            ]
          ]
        ],
        [
          [
            [
              0.010142334316778162,
              -0.16723319925429475,
              -0.12233375583000364,
              -0.08361648313267453,
              0.07464317096516741
            ],
            [
              -0.07729547649879236,
              -0.14638555509510334,
              -0.04734055423940586,
              0.3148139690481848,
              0.34756631400938054
            ],
            [
              0.16326472247090773,
              0.2863219439414284,
              0.31260460015270947,
              0.26810066996522935,
              0.19466283891448982
            ],
            [
              0.21209411332157288,
              0.3267070978122849,
              0.21075870772444585,
              0.0032511947983820833,
              -0.035050615171264905
            ],
            [
              0.09754390672956433,
              0.095455292235302,
              -0.000559750205648475,
              -0.11040325186856183,
              -0.10708688907657342
            ]
          ]
        ]
      ],
      [
        [
          [
            [
              -0.03071940721578245,
              -0.07801065640922242,
              -0.027988012716055298
            ],
            [
              -0.0692238551170013,
              0.037485223520603655,
              -0.029833572256734178
            ],
            [
              0.0677629008358667,
              -0.040600344274378836,
              -0.10476554729367743
            ]
          ],
          [
            [
              0.08034371106211514,
              -0.09990798141683128,
              0.050272665832675575
            ],
            [
              0.06542295817006041,
              -0.04908948104311683,
              0.014293893138984997
            ],
            [
              0.10165258374527801,
              -0.002619459265998228,
              0.0023533610813805794
            ]
          ],
          [
            [
              -0.13206593708224745,
              -0.01724425697840001,
              -0.012458817626157288
            ],
            [
              0.003664724554600777,
              -0.040458177873649026,
              0.009534283428480554
            ],
            [
              0.0051718739849141325,
              -0.043433081941222494,
              -0.035694303689318654
            ]
          ],
          [
            [
              -0.05566322042668068,
              -0.0715169075505793,
              0.07283078687754625
            ],
            [
              0.05583826179955077,
              0.019857704399061843,
              -0.06595749906211301
            ],
            [
              -0.046144437610658645,
              -0.06268957512566022,
              -0.04713482538375003
            ]
          ]
        ],
        [
          [
            [
              0.6093387206489994,
              0.4558179939618588,
              0.08253449220246985
            ],
            [
              0.10177045971136162,
              0.09972001657270559,
              -0.08615082842580049
            ],
            [
              0.011982159554101451,
              0.18762782085550456,
              -0.10860251252728141
            ]
          ],
          [
            [
              0.07852427927655818,
              -0.0061659599748374,
              0.06040662202610476
            ],
            [
              -0.10422533558318568,
              0.02094633196031581,
              -0.061393308371172635
            ],
            [
              -0.1824938816731707,
              0.07831938129946452,
              -0.302539487445843
            ]
          ],
          [
            [
              -0.01109839961096627,
              -0.15323919878076095,
              -0.39378594361151475
            ],
            [
              -0.07294091126134945,
              -0.20235855771056382,
              -0.16152642481119253
            ],
            [
              0.011187777061426367,
              -0.10106882143071097,
              0.29434729675097915
            ]
          ],
          [
            [
              0.05137844148209451,
              0.006384526722544404,
              -0.03495329367114158
            ],
            [
              0.009793419815378176,
              -0.1439371475270274,
              -0.1884533210146047
            ],
            [
              0.05871228400793297,
              0.044935217882814786,
              0.0351230620369889
            ]
          ]
        ],
        [
          [
            [
              -0.5578124074881282,
              0.002175614510192091,
              0.51892961754204
            ],
            [
              -0.16540158112230496,
              0.30785894701070055,
              0.04651069911408489
            ],
            [
              0.08650152733731074,
              0.2555134982602873,
              -0.015280976132335011
            ]
          ],
          [
            [
              0.08583505905946916,
              0.19902734534797806,
              0.30894014132202174
            ],
            [
              0.3365760566370231,
              0.30781608299054297,
              0.3575608900600247
            ],
            [
              0.43514010622497057,
              0.43330701217497763,
              0.42324787993609636
            ]
          ],
          [
            [
              -0.34727391593366047,
              -0.6566602861156271,
              -0.5767974939225732
            ],
            [
              -0.3802114817628755,
              -0.3285184643575625,
              -0.28417356380719166
            ],
            [
              -0.3224870794852527,
              -0.30805388231405173,
              -0.3502448936515324
            ]
          ],
          [
            [
              -0.2161068419988664,
              -0.07277611359019129,
              0.1576604371248089
            ],
            [
              -0.06383482246555294,
              0.14703333689124076,
              0.029289404560127134
            ],
            [
              -0.10068550780881226,
              -0.11813914340999732,
              -0.0794792239069622
            ]
          ]
        ],
        [
          [
            [
              0.6058680076648355,
              -0.07065108485386767,
              -0.4042939426215838
            ],
            [
              -0.10946249125034328,
              -0.12168204492010995,
              -0.5209448235177854
            ],
            [
              0.013228739528369416,
              -0.18833893443497265,
              -0.4948475578073479
            ]
          ],
          [
            [
              0.27445261511732627,
              0.19560351377575602,
              0.018785428581244174
            ],
            [
              0.03046509353382738,
              -0.09411558126946197,
              -0.010417069222255293
            ],
            [
              0.17257090765743613,
              0.07491863369486586,
              0.012156764882800911
            ]
          ],
          [
            [
              0.5510780112980354,
              0.25816518086679846,
              -0.04529180080581341
            ],
            [
              0.432039502519886,
              0.02493145819945874,
              -0.4134174482437613
            ],
            [
              -0.21346750045458732,
              -0.22925319747615336,
              -0.45212307145243574
            ]
          ],
          [
            [
              0.29521509477260716,
              -0.01345976576089838,
              -0.16496699120974515
            ],
            [
              -0.21352630988144913,
              -0.09944257295585848,
              -0.0649713147426167
            ],
            [
              -0.09082782159208953,
              -0.16458321268696496,
              -0.16742683287990592
            ]
          ]
        ],
        [
          [
            [
              -0.5457523602366052,
              -0.6293794743010235,
              -0.46356457871969164
            ],
            [
              0.0421651947148619,
              -0.009650801928772192,
              -0.4716301805610995
            ],
            [
              0.48205853073780147,
              0.451093501415097,
              0.723899779895328
            ]
          ],
          [
            [
              -0.3662154652552872,
              -0.2192251047375716,
              -0.2469856956198015
            ],
            [
              -0.3186385828080218,
              -0.22265705767787883,
              -0.4006787155988921
            ],
            [
              -0.21742832871825737,
              -0.060069163730539325,
              0.08536780373346278
            ]
          ],
          [
            [
              -0.37166093124472366,
              -0.16456280025185457,
              0.18784529801216843
            ],
            [
              -0.1213609212828891,
              -0.09091304411696303,
              0.04286846621759539
            ],
            [
              0.2592135034339861,
              0.4525527829699723,
              0.48477864785703906
            ]
          ],
          [
            [
              -0.22450906527197437,
              -0.03684986163711966,
              -0.05434095085113284
            ],
            [
              0.26509164790038875,
              0.14814426517109194,
              -0.20990325128372758
            ],
            [
              0.24169004395761234,
              0.10821604586883478,
              0.1311844881854062
            ]
          ]
        ],
        [
          [
            [
              0.11674453570732284,
              -0.305892421623549,
              -0.18287180400651049
            ],
            [
              -0.2569704688909086,
              -0.031985680745779066,
              -0.039596681721830444
            ],
            [
              -0.12688993765752576,
              0.022855336190577263,
              -0.046774638039681696
            ]
          ],
          [
            [
              -0.021084365230874383,
              -0.06302334418247912,
              0.1047630283210432
            ],
            [
              -0.0777804611397731,
              0.045343405715712784,
              0.03294034635595238
            ],
            [
              -0.0012124157247455887,
              0.0032213639705050996,
              -0.08251573031083101
            ]
          ],
          [
            [
              0.4839046489465973,
              0.2628316606458329,
              -0.0780689642235531
            ],
            [
              0.11312227592563776,
              -0.09606015120185772,
              -0.2245652474612498
            ],
            [
              -0.1747047912747988,
              0.03881758544488293,
              -0.13095811133512483
            ]
          ],
          [
            [
              0.030808049281624273,
              -0.09776166772698128,
              -0.13368545477667448
            ],
            [
              -0.18278854463712205,
              -0.032222439827925005,
              0.04425957814353408
            ],
            [
              -0.014024515414537662,
              0.04077339937017923,
              -0.02301151890989925
            ]
          ]
        ],
        [
          [
            [
              -0.20439636256996865,
              -0.2940445853611153,
              0.3545472461108794
            ],
            [
              -0.027504733256953205,
              0.5457772457955213,
              0.5819452114474695
            ],
            [
              -0.1996098621571802,
              -0.41170327445657057,
              -0.6839765780826704
            ]
          ],
          [
            [
              -0.05096660936532488,
              -0.3784517844273838,
              -0.21153574803508438
            ],
            [
              -0.05592093380464857,
              -0.01859171838639346,
              -0.19129082142522116
            ],
            [
              -0.22047652611114718,
              -0.21848013880128248,
              -0.41126444824487285
            ]
          ],
          [
            [
              -0.18340959666353188,
              -0.27989465639020994,
              -0.413308632880728
            ],
            [
              -0.22490814886544627,
              -0.006685727971180962,
              0.41215230025563115
            ],
            [
              0.4523597228282017,
              0.4594629929729724,
              0.25708930615419245
            ]
          ],
          [
            [
              -0.17187874892187893,
              -0.21376014437234545,
              0.2906543947326087
            ],
            [
              0.12633092606962487,
              0.37540965893717837,
              0.4124441047288994
            ],
            [
              0.04084479868043446,
              0.02042227453414117,
              -0.11397939851962244
            ]
          ]
        ],
        [
          [
            [
              -0.24221613085928573,
              -0.3789169810808874,
              -0.44235342705213687
            ],
            [
              0.12655660311455225,
              0.10933299018486936,
              -0.1529314841192213
            ],
            [
              -0.1439705206666968,
              0.19159853614928185,
              -0.02082979875290077
            ]
          ],
          [
            [
              0.13718761169536942,
              -0.06832381158379247,
              -0.30492092653876274
            ],
            [
              -0.11697414260921954,
              -0.2858339834691188,
              -0.45622869300497737
            ],
            [
              -0.07342242513716624,
              0.008619770197248024,
              -0.2208953796880943
            ]
          ],
          [
            [
              0.33385257349774444,
              -0.1682101140456266,
              -0.20522529240734824
            ],
            [
              0.6009774094163521,
              0.7758439157834456,
              0.2524188228738793
            ],
            [
              -0.31751576816275556,
              0.36503484845117745,
              0.4052872139681865
            ]
          ],
          [
            [
              0.004962230170644417,
              0.10303956932843074,
              0.268044274016455
            ],
            [
              -0.11876377900400033,
              -0.007131442460248908,
              0.15530460683437525
            ],
            [
              -0.027253065166026283,
              -0.008272966424841675,
              0.05272194766016516
            ]
          ]
        ]
      ]
    ],
    "kernel_biases": [
      [
        -0.35464149457943284,
        -0.1490903809548729,
        -0.006440716819500958,
        -0.00017237207431321938
      ],
      [
        -0.03810889264104255,
        0.05310939973976532,
        0.2884036662395362,
        0.43791519204396695,
        0.05129835369145303,
        0.1320396248991414,
        -0.06590360379172484,
        -0.002331286324111153
      ]
    ],
    "weights": [
      [
        [
          -0.08761119873369216,
          0.17380772003975228,
          0.12344420181550769,
          0.07219451097895914,
          0.15828704787945366,
          -0.13058762327359563,
          0.21203322603480204,
          -0.10155523391560148,
          -0.12150435442273723,
          -0.06263480278381307,
          0.07532814280014646,
          -0.10479476334744965,
          -0.05678847029560163,
          -0.11917741698745153,
          0.051364611614254055,
          0.10674518895976948,
          -0.0036097054517519175,
          -0.04299817707467551,
          -0.09033995582333135,
          -0.08824617002815009,
          0.0857621608250923,
          -0.1255101239838406,
          -0.11795927189020008,
          -0.017203893391454447,
          0.010855548041036398,
          0.03881420478009385,
          -0.21526164158592487,
          -0.1564350574139657,
          -0.028806074669625745,
          -0.10719658456043354,
          -0.08464470063114078,
          -0.08062262658640364,
          0.013559739210547478,
          -0.04654386214525498,
          0.06542127011362163,
          0.15324355447104093,
          0.1707049890940957,
          -0.24571094337247704,
          -0.07989477086354851,
          0.11300425400463894,
          0.21168010478156757,
          0.24265422231566125,
          -0.24945296543666273,
          -0.11904320467357621,
          0.3087188033542079,
          0.050787518427473734,
          0.20667731604323053,
          -0.08338615425690876,
          -0.21123064116698026,
          -0.1773614931705563,
          0.001109333688230819,
          -0.1330624000497978,
          0.10142161031172996,
          0.0322047541251423,
          -0.07286043438890127,
          0.017769054928068993,
          -0.06415390428822876,
          -0.025187668782009447,
          -0.2139524280462011,
          0.08817949224827046,
          0.11205818563365944,
          0.026292226361903346,
          -0.30228191061129983,
          0.08800814858876282,
          0.13604448206422123,
          0.04155466477539705,
          -0.007725144254272723,
          0.04433747071616995,
          0.15950159998932292,
          0.03699920290232927,
          -0.12270458958554929,
          -0.22290159540784954,
          -0.42888835579309237,
          -0.10183916450432264,
          -0.0037398261338090003,
          0.09512137145679816,
          -0.02085393060012582,
          -0.3203509271236314,
          -0.18244918444671948,
          -0.17394746048663207,
          -0.00597266681749283,
          -0.036108962298568914,
          -0.18242226029861675,
          0.01597098292088791,
          -0.0936264097759222,
          -0.0347724436723614,
          0.09291549871489116,
          -0.03513277842008638,
          -0.10078795540792794,
          -0.08998131039967223,
          -0.19172190438395614,
          0.1044352937778831,
          -0.19163986926637272,
          0.13639092678932158,
          0.002216933231439295,
          0.024412275489233446,
          -0.12712716502013216,
          0.0653221153147088,
          0.008204943963141533,
          -0.05865014541086344,
          -0.19381107354394872,
          0.027821239626705036,
          0.3283142567777565,
          0.2064921003123808,
          0.12218521499135224,
          0.020441727689230645,
          0.08770004234312698,
          -0.03598224269531261,
          -0.16321194136707426,
          -0.13165177885244625,
          -0.056280655264524485,
          -0.22436368872018955,
          -0.24057375772672357,
          -0.3881364617430542,
          -0.32347135743058936,
          -0.4286988450774431,
          -0.06834809813869182,
          -0.001873744724517143,
          0.0012485258636582633,
          -0.3581094872211456,
          -0.2562247615619947,
          -0.13000990541390745,
          0.1278719657854832,
          0.02539214870608827,
          -0.3163227511412635,
          -0.10561046663901122,
          0.07652306598282944,
          -0.012048552908665555,
          -0.04352110823992163,
          0.016981236436838815,
          0.09889486729065734,
          0.09117319321045879,
          0.03692779808978532,
          -0.08995987939520014,
          -0.16477358265174014,
          0.04528247629751074,
          0.04534467736511176,
          0.11280881930860646,
          -0.2845879280248379,
          -0.016905420671242614,
          0.0075387603104366445,
          0.07110966648005275,
          0.024043224913500163,
          0.053867555301148964,
          -0.06407816709880512,
          0.0820467862628363,
          0.06055817410819835,
          0.17189274846889188,
          0.12709276588790877,
          0.23403981605163904,
          -0.13060154478000702,
          -0.09832143622799593,
          -0.31095137635934766,
          -0.13513929438619363,
          -0.022369101771963405,
          0.05083161104876419,
          -0.13136478861810444,
          -0.10286734774231285,
          -0.23547881892029407,
          -0.22798929855887398,
          -0.025245569955527243,
          -0.15157059949903318,
          -0.31307362255673665,
          -0.18691805867391398,
          0.08087873877458915,
          -0.17841485075413077,
          -0.1282388222988007,
          0.07493118534666687,
          0.1229621943696393,
          0.16052481191235357,
          0.07820047141783029,
          0.057671675690223224,
          0.11687886662158048,
          0.01247193228720978,
          0.23805551331116517,
          0.011629541545382692,
          -0.217837959191189,
          -0.0443407114236319,
          0.03575624484198558,
          -0.1292307075287154,
          -0.27088186354694044,
          -0.05922309529082406,
          0.10871883282130486,
          0.1596700344248433,
          0.07022227859428576,
          -0.18866351040722837,
          -0.29812635390031883,
          -0.214864250641331,
          -0.04021141246111742,
          0.032280119628520745,
          -0.049659767365888466,
          -0.1506348968163919,
          0.05651622059727703,
          -0.10845040452274228,
          -0.15511372997522996,
          0.07943486624069178,
          0.22861021391563582,
          0.2390209704598907,
          -0.1484241089585447,
          -0.10545922528893432
        ],
        [
          -0.032426222258425175,
          -0.0072385895662786335,
          0.16770415475010222,
          0.05881154252410196,
          -0.026076868108589328,
          0.04086084272808001,
          -0.04888873888658757,
          -0.07000337525883862,
          -0.07485636450396947,
          0.24214468019751823,
          -0.06514943555661601,
          0.07019994060471993,
          -0.2009273981408783,
          -0.0680763917672218,
          -0.049029367222605674,
          -0.08989721406128007,
          0.06035510277632159,
          -0.11604911441229286,
          0.19898502470124232,
          -0.02053994192620767,
          -0.024758856619691422,
          -0.18270057726296332,
          0.017857752097219334,
          0.01527899598520498,
          -0.18641366377934054,
          -0.07776607271318771,
          -0.19599758615099988,
          0.3438541919702486,
          -0.022913338560338555,
          0.11962370086948444,
          -0.05204892417423685,
          -0.4487718857794706,
          0.400192792557898,
          -0.01985601220033429,
          -0.09466786615154486,
          -0.07839197417085905,
          -0.5653745784714357,
          0.5241056026522298,
          0.22070101723523028,
          -0.3473795708152131,
          -0.25196031661156587,
          -0.05882569646017729,
          0.22427078467681455,
          -0.2767093612884763,
          -0.07445248852313627,
          -0.031407242628439094,
          -0.12659893737169828,
          0.1113004893136103,
          0.03838924313503502,
          -0.08994745176419842,
          -0.06458942449269173,
          0.10555156375694195,
          0.07297813061784071,
          0.15743280095326828,
          -0.07861789734577034,
          -0.13857247328924371,
          -0.20903805659478877,
          0.011707003369859215,
          0.22657987804690852,
          -0.10357239025913213,
          -0.038169883687475474,
          -0.045687861355056536,
          0.22712611440071295,
          -0.18756609781525607,
          -0.0478392208447084,
          0.12339601670080991,
          -0.013135107813303737,
          0.09629182508382407,
          -0.15809681954644433,
          0.024542321149058036,
          0.11025447916832908,
          0.043045783545698484,
          0.0880595043417239,
          0.059892072497056935,
          -0.029108681712191293,
          -0.007738636874513696,
          0.04330963687353775,
          0.10566102741742034,
          -0.0595216335175022,
          -0.23066235774586732,
          -0.01167842499220614,
          0.04292040201513383,
          0.4524360396935131,
          -0.15874539423463088,
          -0.134585231362994,
          -0.21527478229505095,
          -0.0664445409739979,
          0.2891363751396704,
          0.03957557967201478,
          0.010781277724876094,
          0.027115316039213938,
          -0.013305847937141343,
          0.049150023193771215,
          -0.023510890988530608,
          -0.13586360909527556,
          -0.03653789799787214,
          0.342572792503101,
          -0.23622034624245988,
          -0.07446580627264572,
          0.12772908557936058,
          -0.04890639474866441,
          -0.09353942090788832,
          -0.11750064740134746,
          -0.23013042070908485,
          -0.0051615751290713,
          -0.15652655539722699,
          -0.08655530326738332,
          0.09966267686154984,
          -0.046456337067728996,
          -0.16238887660718557,
          -0.07027986467634864,
          -0.1746101911522222,
          -0.15350442893292854,
          -0.06295302430154051,
          -0.13561105348638697,
          -0.004274513733527462,
          0.1674336844034858,
          -0.1997379652242991,
          -0.06611434943405527,
          -0.08926078341681923,
          0.010541846645907228,
          0.13681713527544687,
          -0.20584842144503152,
          0.17281819287792707,
          0.0962856005218417,
          0.03365473308496088,
          0.08135856874417352,
          -0.05449441351660499,
          0.05335553513219924,
          0.17876661187634188,
          -0.16325439670988537,
          0.12564254333163496,
          -0.15563031782733042,
          0.03291336763404508,
          0.20707808690364246,
          -0.21071463157450065,
          -0.0033665647588224704,
          0.13564518808478562,
          -0.14194864432495388,
          -0.04567504741953997,
          -0.05650931320211518,
          0.15390504806657845,
          0.1026117040054933,
          0.01051930416122413,
          -0.04703221520867441,
          -0.0410386604984761,
          -0.04429278949005837,
          -0.008790884679137842,
          -0.31470805484396985,
          -0.01770896851147849,
          -0.07503565466490326,
          -0.27232738455548605,
          -0.4034528252533745,
          -0.15480346146626925,
          -0.033386447503029056,
          0.10105451479933589,
          -0.07571062281169409,
          -0.09482176424636535,
          -0.07575336660188718,
          -0.07382090479616592,
          -0.05319557419349667,
          0.023353690663158663,
          -0.07063504185916127,
          0.005441043165843494,
          -0.3527762051631513,
          0.02973055193931887,
          -0.0986710397839107,
          0.014460407766438746,
          -0.014225014277299074,
          -0.19225908521753013,
          0.1364040495662742,
          0.1641567347417125,
          -0.16541790395751066,
          -0.09638318994627398,
          -0.06365630934772351,
          -0.10625055563652115,
          -0.132253641572794,
          -0.18954307946321006,
          -0.23413849206545995,
          -0.013478708684627715,
          -0.0750558336220574,
          -0.1701343023691357,
          0.09201785915517026,
          -0.158416211709002,
          -0.047809565317112626,
          0.10140329512252184,
          -0.12101723052951817,
          -0.1993123823357454,
          -0.30749645914761004,
          -0.15510481011803987,
          -0.20746845340053618,
          -0.23193787929836354,
          -0.15975809443354763,
          -0.18053992841377042,
          -0.050449990405913595,
          -0.009421939650740835,
          -0.16958480571245763,
          -0.004546587493248006,
          0.15998536874040045,
          0.05473463294943158
        ],
        [
          0.047537251201056764,
          0.08065568660737951,
          0.020669266983533177,
          0.05687304918398957,
          0.04997962231893133,
          -0.0959693453579422,
          0.02699954590526722,
          -0.1549369141747873,
          -0.09202807803326057,
          -0.03808268080072983,
          0.017949768469573437,
          0.09026357343773661,
          -0.08751800671720288,
          -0.04223537234954121,
          -0.08129579105742384,
          -0.023932599618118743,
          0.07060845590439434,
          -0.011631315698006232,
          0.03819049170100121,
          -0.011772122869387806,
          -0.008290946251344335,
          -0.1900330783819454,
          0.15701651315281032,
          0.22911774338246085,
          -0.021634600123334714,
          -0.03192454979483601,
          -0.025256692983608112,
          -0.0035955111908733046,
          0.003364530239865356,
          -0.10793627830450257,
          -0.2360211417055876,
          -0.09782830275128654,
          -0.17786979035236014,
          -0.29316384220851527,
          -0.22415320182492288,
          -0.2908982973978338,
          -0.4365014841937299,
          -0.5340699335983474,
          -0.01665308328568839,
          0.04147738270950221,
          0.25279014861381055,
          0.27446744130537154,
          0.15288411229998317,
          0.01836797165240292,
          0.008243365648444002,
          0.30453875560202825,
          0.275284105455406,
          0.03558679140452257,
          -0.16593080293515122,
          -0.22893333985023095,
          0.014011048246983564,
          -0.00658261544147461,
          -0.17712013749654254,
          -0.3681290167595979,
          -0.16141425634983944,
          -0.14118212728332338,
          -0.22749247223416116,
          -0.06214534566983465,
          0.03312352394750535,
          -0.13955537377090704,
          -0.17614478363638483,
          -0.17404434089925133,
          0.02174751686593722,
          0.20346821808417798,
          -0.011998912144214155,
          0.29036357221041215,
          0.25073300964106066,
          0.08830943214522713,
          0.10151131240002685,
          0.020003963277268996,
          -0.09434570579131175,
          -0.15768339418850746,
          -0.44914827977722194,
          -0.33130994623890936,
          -0.09345691433933313,
          -0.033237114053760286,
          -0.04626522633436688,
          -0.31924794985545724,
          -0.09457279604160251,
          -0.032573234625916714,
          0.1772447959210175,
          0.040884190577570464,
          -0.09670425751150948,
          -0.09880505653710878,
          -0.24134603779611866,
          0.10236111947214223,
          0.0521556926575942,
          -0.032357481410202726,
          -0.07509390584365967,
          -0.18709114975265917,
          -0.17887753000202847,
          -0.04437517156499095,
          -0.15152706086614326,
          -0.054053450061666376,
          -0.02985022680946254,
          0.09780249331231199,
          0.3431985467789569,
          0.0578647063166678,
          -0.0874307989617134,
          -0.027100016938015482,
          -0.26430715560372664,
          -0.05024947501582377,
          0.0923800948555695,
          0.14879408149040657,
          -0.17752810337494618,
          0.15678975320736463,
          0.2506829467406416,
          -0.013177758925280501,
          0.0010711599031939401,
          -0.18568816054119716,
          0.5620553589869652,
          0.24052516771185878,
          0.2084345076056426,
          -0.06911892949464098,
          -0.015305089961902473,
          0.03529160055157809,
          -0.32474078306971044,
          -0.019040374707936198,
          0.00019552989250737855,
          0.3679308603831669,
          -0.18493218887641855,
          -0.2008698871553576,
          -6.909891452168487e-06,
          0.3263683184127388,
          0.3310799434158385,
          0.044487236534040055,
          0.011696802125718761,
          0.00372480589540952,
          0.007667141166022671,
          -0.12702447046398346,
          0.05740328605713293,
          -0.009015917759381245,
          0.04970953692912045,
          0.057900728953484935,
          0.033298196840761456,
          -0.05399882955940215,
          -0.013023768819078916,
          0.16548378349074452,
          0.03957536867603182,
          -0.03982575859695605,
          -0.08557777484569028,
          0.08078027971229537,
          -0.07252572400397554,
          0.1088543198142771,
          0.09178113671147181,
          0.24425740172835692,
          0.061692872075891664,
          0.23238886411068815,
          -0.1306878495416049,
          -0.09864053269839242,
          0.04599053406498005,
          0.04309553985096474,
          0.016670587754329776,
          -0.02437431960292926,
          -0.24009322365549376,
          0.15195235782263958,
          0.19752867190158532,
          -0.01032321134550445,
          -0.19436009633121312,
          -0.3247329509591379,
          0.23064067205298602,
          0.10335136697383705,
          -0.22777404639078067,
          -0.1298769297652644,
          0.1701088678893848,
          0.19012222696422915,
          0.044908602598817404,
          -0.0536057976118818,
          0.09088097435189861,
          0.4300360315017187,
          0.035908524113227064,
          -0.0016589249339792431,
          0.10221862915034073,
          -0.12006855998044398,
          0.031322085030397274,
          -0.015591058140742046,
          -0.005893839328133924,
          0.036677321486296696,
          0.06504103949238915,
          -0.1387748732331074,
          -0.2895303161584388,
          -0.1938360196161808,
          0.004674051582459833,
          -0.06785443892298768,
          -0.26068091669767607,
          -0.16174085046814793,
          -0.22225072306894925,
          -0.003900221970532357,
          -0.2292077428598747,
          0.07726118313428484,
          -0.15018027284262303,
          -0.281447275932685,
          0.037260814734567375,
          -0.12273084397323558,
          0.07180503406016925,
          -0.09582285975542343,
          0.14220956469679172,
          0.11142541405817101,
          0.22620591492536707,
          0.31611178565811376
        ],
        [
          -0.03354002584503028,
          -0.023915342500682057,
          -0.01088882942914636,
          -0.16549229717441694,
          0.18415889668655247,
          -0.09826320358431335,
          -0.032075923362335466,
          -0.005495023109048752,
          0.011829149275796338,
          0.09054554958492314,
          -0.005548644982332931,
          0.08869969565394802,
          -0.1257569747709612,
          0.04981369437445993,
          0.005128212597850551,
          -0.11452877416341262,
          0.06812865651334686,
          0.037660870760050834,
          -0.006326835159606322,
          0.1296609726732913,
          0.1472521806738094,
          0.004152108198621224,
          -0.05891315270904005,
          0.052717751004461334,
          0.12627187307237323,
          -0.051048075617057466,
          0.07905021760566754,
          -0.04420611263622655,
          0.16590922987631232,
          0.019050606915406058,
          -0.04684945268342442,
          -0.6402673478912655,
          -0.01556328532810664,
          0.5296922722270767,
          0.25735442772906125,
          -0.4696463006320149,
          -0.07332225903916516,
          0.3994935979141122,
          0.026798042351041548,
          0.16777015309395346,
          -0.19130758591441463,
          -0.4353637838995742,
          -0.3152420604007543,
          -0.17057639165645017,
          0.06269033334030408,
          0.14419863821924453,
          -0.10080552219580094,
          -0.09820994138499513,
          0.21384044719785975,
          0.15206225443269594,
          -0.02153963770010703,
          -0.31385945214531497,
          -0.25952695726265507,
          -0.25031115640357043,
          -0.32516149011565726,
          -0.3393068781977353,
          -0.2680171301243198,
          -0.31727733215460857,
          -0.07157204235218362,
          0.0047946882741139,
          -0.2870525195969857,
          0.05689910669475409,
          0.05200495615135119,
          -0.21112866210784184,
          -0.0975130221106272,
          -0.38327267008682603,
          -0.22020879196476897,
          -0.2547779290878069,
          -0.1475643945098269,
          -0.1294793693674281,
          -0.11122712737996672,
          -0.01068215712758236,
          0.025043103065677377,
          0.13785818238627848,
          0.1685991598142345,
          0.0061778136508954026,
          -0.19763038334973196,
          0.040752296315162806,
          0.028720135493223515,
          -0.10257788955222519,
          -0.09105758078028005,
          -0.21422244705248544,
          -0.035029336806754616,
          -0.48140153334667757,
          0.1502830526576834,
          0.1007742593226706,
          -0.18344216580484202,
          -0.07815343987356392,
          0.23326153255307505,
          0.04650326520277446,
          -0.02040447710273917,
          -0.043246849420376716,
          -0.163715059629269,
          -0.33069590006932953,
          -0.04070057248376208,
          -0.07513531352408997,
          -0.2020842769309954,
          -0.02433706639436017,
          0.005323712414465279,
          0.060473218936236015,
          -0.006183121963143473,
          0.024944400062229533,
          0.021063125663597585,
          -0.04689096646274243,
          -0.28995437107075644,
          -0.03656060733040784,
          0.08932817883596225,
          -0.1031813376192864,
          -0.29044581872234027,
          -0.17570807079792852,
          0.0012434429755945073,
          -0.18384488788026002,
          -0.05562871507058639,
          0.030695726015506325,
          -0.003089356955931908,
          0.039923319839990326,
          0.2726804704393766,
          0.08344159690353994,
          -0.08808103395572817,
          -0.12075580643433895,
          0.22232913961404055,
          0.08444859169507338,
          0.08466161168000627,
          -0.14157662440825997,
          -0.18168450041073275,
          -0.028595446070623767,
          -0.06400536116593104,
          0.04149416953153875,
          -0.10764423613753822,
          -0.08172496744409892,
          -0.0489190811322462,
          -0.13763554633589473,
          -0.014537560905030176,
          -0.04997101600619334,
          -0.2527566264465744,
          -0.11343293954015778,
          0.02022583657466318,
          0.13461543294012293,
          -0.06169791502553346,
          0.15602039536906748,
          -0.027300510264853063,
          -0.16897618911491438,
          0.055180203048743014,
          0.05440563456141681,
          -0.0071027340350785385,
          -0.0046173820945373915,
          0.11595399059018126,
          0.021838957726222834,
          0.14202104061468998,
          0.1096800997340351,
          0.12587636056420126,
          0.1899889827483958,
          -0.04130743366029079,
          -0.3385820476808392,
          -0.30134667932248504,
          0.28301350587004764,
          0.3493747796686568,
          0.17518762174945532,
          -0.08133181974202272,
          -0.20809783176542193,
          0.055380602712217335,
          0.2331702967813663,
          0.3736915884191754,
          0.18016464656222228,
          -0.1740323984006344,
          0.0017923456125269173,
          -0.10161410359741813,
          0.16059444449994276,
          -0.25557322331950333,
          -0.19333665430956926,
          0.17779189653112898,
          0.2020911252359666,
          0.2782507216051749,
          0.10159945596486958,
          -0.02670561704869822,
          -0.030642987440029273,
          0.008741715562327619,
          0.11657806848278364,
          -0.029646879587708296,
          -0.13890616732098612,
          -0.08774764774768173,
          -0.2950903700371376,
          -0.1362033795749964,
          -0.18015910729257087,
          -0.10750085398487595,
          -0.09620943219733118,
          -0.40371704683093557,
          0.03227946627225739,
          0.3241233686698023,
          0.037720440188592434,
          0.09025127117968254,
          0.01782369737804583,
          0.39223280678291267,
          0.1275599704837112,
          -0.14800045151666819,
          0.0338918467070084,
          -0.12057529050594118,
          -0.08493252319871092,
          -0.1853968674763607,
          -0.21385064293797
        ],
        [
          0.053611047887949265,
          -0.0745201809786742,
          -0.07663594196135882,
          0.2154979588423204,
          -0.0723670201339595,
          -0.013341717494824634,
          -0.2494582050687813,
          0.11973697968587463,
          -0.03351738633803988,
          0.022266401124011043,
          -0.048337958130065514,
          0.02652788828507436,
          0.08845105230931967,
          0.21611628896351212,
          0.015180822822393365,
          0.06255829831707042,
          -0.04399607440163891,
          -0.026640443822570754,
          0.022955448603925708,
          0.002960988033929501,
          0.0858319650233156,
          -0.05212302735650693,
          -0.007051374538365838,
          -0.015105101641498527,
          -0.13013462613868354,
          0.025501826378037253,
          -0.13861821169927754,
          -0.1538068116802742,
          -0.2769288330533211,
          0.09158921714496478,
          -0.20130296728798214,
          0.19429198547394178,
          -0.31254564218536485,
          -0.03361354210782351,
          0.0538215230114026,
          0.17028797219986486,
          0.628606362406992,
          -0.23892809727723516,
          0.18624892129401327,
          -0.04958634445189275,
          0.19535344499435078,
          0.10826480710246646,
          -0.05503888439489843,
          0.2682541138282956,
          -0.24509291011766102,
          -0.26997477750402354,
          -0.3524050645426855,
          -0.240946181982514,
          -0.10296972076798176,
          -0.09329355014301477,
          -0.23995308725714573,
          0.17493103410680047,
          0.3339563425687778,
          0.3317018324060751,
          0.28700286128533614,
          -0.10635887355270307,
          0.07967525545097363,
          0.17678173294273766,
          0.30940116225817027,
          0.12801999046212661,
          0.23180580749315216,
          -0.11034381786507214,
          -0.36834585602243713,
          0.07157009969683832,
          -0.04062927859290133,
          -0.10973171493917082,
          -0.01582593142263449,
          -0.03788083888768332,
          -0.07169787512289937,
          -0.02994557052410376,
          -0.15289793738009388,
          0.03141319126333586,
          -0.17536489203676417,
          0.04568223688154852,
          -0.10170380160186009,
          -0.19674998236098662,
          -0.14577796771271512,
          -0.15518181253281574,
          -0.13702313673009492,
          -0.18987043905983014,
          0.11161625173403499,
          0.11175875455419657,
          -0.13839962743908132,
          0.1346868853975102,
          -0.09639053039348779,
          -0.04713867695820397,
          -0.03681631538070779,
          -0.12493515721542776,
          -0.1275666361260341,
          0.09381541174967356,
          0.11484260945693994,
          -0.12470142172807804,
          0.12050236520042014,
          0.1258655574665794,
          0.3487013756146627,
          0.10045526601912909,
          0.035341922033185404,
          -0.31035104442260786,
          -0.24745295972316125,
          -0.20034019627392316,
          0.1333160907320784,
          0.1049619103903856,
          -0.1923379478155079,
          -0.20104041461629998,
          -0.040717666162427134,
          -0.06999820130031938,
          -0.1435470312429361,
          -0.1786574090518279,
          -0.306491918568459,
          -0.24092013890184466,
          0.034019539290696656,
          0.0376987484149238,
          0.06894947588282638,
          -0.23265300751807153,
          0.10837644231155708,
          -0.10360506266976154,
          0.16605876593188143,
          -0.10818769701724522,
          -0.20625115111124667,
          0.20548474085520366,
          0.011968500449468369,
          -0.02187346955441676,
          -0.15938009027832922,
          -0.03495018182917277,
          -0.02765799695028507,
          0.034215986447989635,
          -0.012678517566291833,
          -0.16886992517259047,
          -0.1844000906645267,
          0.10452400255213845,
          -0.025198918959664224,
          0.037637709301553635,
          -0.06346449925752479,
          -0.19022373626543537,
          -0.006870379302871903,
          0.015351005407803937,
          -0.19300790386055583,
          -0.14473313567818946,
          -0.10560041580454918,
          -0.10801381260448863,
          -0.15452550707138318,
          0.016080923694159484,
          -0.31752650214938755,
          0.07398965755386996,
          0.0899557530738905,
          -0.07070886421890932,
          0.07122209685610334,
          -0.2883137106595467,
          -0.07949912232401855,
          -0.20921084425714725,
          -0.10717866827793338,
          -0.07167203728552018,
          -0.5619912538187394,
          -0.3384512723186415,
          0.04295928285575497,
          -0.2826944806578368,
          -0.023004107087737546,
          -0.16460299651774685,
          -0.16938661829517013,
          0.1253843454639149,
          0.12105020643279817,
          0.10073411886892841,
          -0.20121064226169583,
          0.1766298345333792,
          0.14567905663381286,
          0.09687253805149529,
          -0.08212657680954166,
          0.058280963855426846,
          0.06502991159986987,
          0.037319415649674344,
          0.1732192585102,
          0.011429637809747309,
          0.032414928445638265,
          -0.1540712561445689,
          0.028886323979434383,
          0.16155616413337034,
          0.13009408122428265,
          -0.1189373145690122,
          -0.10763373845913776,
          -0.2301758347684003,
          0.008391488119948798,
          0.049214814813727574,
          -0.41250131188787303,
          -0.2411595712642055,
          -0.23415570762657073,
          0.1281074320146084,
          0.14069900029374444,
          0.0684697381204208,
          -0.03369687352128767,
          0.02177985966042995,
          -0.0117797470649414,
          0.09289365082324397,
          0.1728262057722803,
          0.08215353015696115,
          0.17806591013169654,
          -0.3375750892836586,
          -0.3209520716322962,
          -0.2882182902651924,
          0.07604797728248833,
          0.10464628044209677
        ],
        [
          0.1468113206859068,
          0.045206961049827,
          -0.12216396984135296,
          0.07231108403590969,
          0.12928238547516646,
          -0.0390358785318194,
          -0.125357248745741,
          0.09186163341206875,
          0.06962271566910085,
          0.12318223738849798,
          -0.024360036029741686,
          0.0810831636448893,
          0.011581298000531115,
          -0.08544355051086545,
          -0.14314799216523777,
          0.08048496509857708,
          -0.21745007590482926,
          -0.08595235389207564,
          0.05428324856971991,
          -0.029668683222996435,
          0.07544982659240769,
          0.23845559808224243,
          0.035006644764141615,
          0.07140786721521307,
          -0.04333754453775792,
          -0.3916797604780067,
          -0.04814243792986145,
          -0.1577363112038264,
          -0.19016949055380974,
          0.1016983845097845,
          -0.023989289265590553,
          0.5482696163253598,
          0.08382296682149544,
          -0.5095323429809144,
          -0.06391350071736313,
          -0.09874885456157002,
          0.2349268100167873,
          0.010355342287514814,
          -0.5132763473745368,
          -0.6447755788334893,
          -0.15610828601924445,
          -0.33101346538855586,
          -0.11063145948824811,
          -0.04912367029055676,
          -0.26037462081992285,
          -0.018612664702811657,
          -0.05982060850285148,
          0.20425153372316596,
          0.06359857236259167,
          0.06740738658587814,
          0.14153681309194127,
          0.004238071621124558,
          0.10265242055784297,
          0.18150751515257457,
          0.28760211763440413,
          0.012530831824354459,
          -0.06914563423249703,
          -0.00926692768438935,
          -0.15533109743433152,
          -0.01503924653576579,
          -0.4298663019388324,
          -0.10911826438290646,
          -0.27051406472630274,
          -0.5910098446296467,
          -0.32735384535516004,
          -0.36632953283093894,
          -0.22465850459275766,
          -0.06782553129979171,
          0.058592341332267914,
          -0.17520573536445028,
          0.13018268007867526,
          -0.03726493631237763,
          -0.0659027795046652,
          0.06287417442546497,
          0.1915548202157397,
          -0.1581714150324172,
          -0.09006358634392099,
          -0.16546899547490268,
          0.02583036474286259,
          -0.08436648245286332,
          -0.10511713178492334,
          0.04408764146271929,
          -0.06016596027399026,
          0.356602673664284,
          0.016096294957783686,
          -0.09034907800689618,
          0.09363772308431276,
          0.15432299093485743,
          -0.09610447305393419,
          -0.2537319027747358,
          0.058093220288657446,
          0.18556863970953058,
          0.09615533303520797,
          -0.34798628589138864,
          -0.21509361173688324,
          -0.05472561714362542,
          0.2047535771273064,
          -0.06959280450483278,
          -0.17257684357735817,
          -0.13924480692149407,
          -0.27073216304782066,
          -0.15841245504465049,
          -0.05359801413961204,
          0.026998175707283984,
          0.20501722758343632,
          -0.328107947337766,
          -0.10231679607938579,
          0.06566818294118217,
          0.45616891781460617,
          0.08032826890492901,
          0.1116124819158232,
          0.07417538470605647,
          0.18383455622165384,
          0.14089333951234562,
          0.24156540860044384,
          0.28399297751775504,
          0.13315704195633493,
          -0.0432945492968678,
          -0.019236891416934337,
          -0.055883351540814565,
          -0.20770819576286292,
          0.2031518890841103,
          0.11428519956584388,
          0.015190292348422998,
          0.0050614397581109,
          -0.08997842274878606,
          -0.0808792933917422,
          0.03936347429979338,
          0.03571329709787008,
          0.07319454151042255,
          0.06430522637224827,
          0.07520684548255292,
          0.14561698573444884,
          0.18251893767418542,
          0.013834135419225176,
          0.019787341694514144,
          -0.11837748495150625,
          0.04873232626126736,
          -0.10909924276670498,
          -0.165152388433322,
          -0.019551811021293823,
          0.11451438219120531,
          0.008439931117540085,
          -0.01750941492152327,
          0.052875795579021265,
          0.007557718977334105,
          -0.023766787583489282,
          0.1547679083824651,
          -0.04450181799924155,
          -0.10879303872050519,
          -0.23931241069765866,
          -0.17656547443368845,
          0.1257001365034686,
          0.4811788759785817,
          0.4174531387460992,
          -0.23861074639623076,
          -0.31604497542243487,
          -0.11473168564745241,
          0.00123350793281936,
          0.5442099221952942,
          0.06698293262139686,
          0.09992763436827438,
          -0.05848287769995417,
          -0.38733149610529233,
          -0.2794762198527939,
          0.1694353416515609,
          0.1675429962135169,
          0.03617177616814689,
          -0.05654440635537478,
          -0.1461827502849237,
          0.09381606190202048,
          0.2705196336437952,
          0.21070985216713117,
          -0.12048107288861584,
          0.010500218502377687,
          -0.012093016261659317,
          -0.29385514303607857,
          -0.10045986674265944,
          -0.14019152420524636,
          -0.1973347120017033,
          0.040979423388080985,
          0.09833765036754999,
          0.07525920156073146,
          0.15777465613138175,
          0.10557578719058844,
          0.05846878452536821,
          0.0468386617662038,
          0.0038720865022713402,
          0.2371584524280415,
          -0.15046661471358228,
          0.08538701984047017,
          0.07989978694162758,
          0.15349550866696354,
          -0.13743078737936676,
          -0.06187636845096904,
          -0.12038858680870346,
          -0.020924647975959658,
          -0.202316188469197,
          -0.004596585421559601,
          -0.04487142612425316
        ],
        [
          0.04013414046089526,
          0.0829851562897976,
          -0.06551670839472185,
          -0.13466438810653455,
          0.16979679124321564,
          -0.013415187493156849,
          0.059902227086644305,
          0.08853421965052481,
          -0.049927695721711594,
          -0.059756601015402616,
          -0.17025188503955443,
          0.025632089311106675,
          0.17962420872433704,
          -0.0178219135425877,
          -0.11533575736960709,
          -0.12067907113839978,
          0.033234607170442035,
          0.11846629083144836,
          -0.12796542099544422,
          -0.06942970590581642,
          -0.01845529422858732,
          -0.09606273269940838,
          -0.1511723401726969,
          0.035305805233602404,
          0.061380950709594234,
          -0.03392748072055466,
          -0.11048719762419243,
          -0.00973995075853587,
          -0.043277560089335726,
          0.0329426887249316,
          0.10246123485295977,
          -0.18016751343436885,
          -0.11902224235690696,
          -0.4782893208907735,
          -0.32837192406715726,
          0.1042480526732557,
          0.15695974704611526,
          -0.1793024467760296,
          -0.5066217571105472,
          -0.15422092574882273,
          0.05790234234012194,
          0.30735907877040974,
          0.20313265374609063,
          -0.23056508496021624,
          0.14490352397220768,
          -0.1528387121443531,
          0.3079882400397096,
          -0.004749951294966622,
          0.39731029467607826,
          0.016398221495616615,
          0.31592712037695986,
          -0.02995072502905426,
          0.12579103174030104,
          0.1136218722700864,
          -0.20598534305930685,
          0.06952135573890128,
          0.05830773101378051,
          0.21550126774294073,
          0.083374571434258,
          -0.13146410552402044,
          0.12497343366076157,
          0.04102156205101081,
          0.1549377697140811,
          -0.10931195776655245,
          -0.19309489117180825,
          0.01958093552280112,
          0.03799179720224403,
          -0.01473137796244026,
          -0.21043790336810422,
          -0.021694737371073147,
          -0.17271688473374794,
          -0.3783906026907398,
          -0.3800514218488341,
          -0.16802928025435881,
          0.03768690791963546,
          0.0061507953685168235,
          0.09046398966229505,
          0.1256088205588386,
          0.06988974271270434,
          -0.007788360313348884,
          -0.06348003363302493,
          0.24708173986109852,
          0.0876899663224374,
          -0.04270504057509549,
          0.21646767379388265,
          0.176942410658648,
          0.06704756052746455,
          -0.1854585701104304,
          -0.17687539287525075,
          -0.23271599184300218,
          0.05017236160505436,
          -0.19581408716547818,
          -0.31108161581115357,
          -0.28758838675689924,
          -0.12005233030995638,
          0.002458906908845817,
          -0.19735625720030434,
          0.13659503015465593,
          0.07055231342715314,
          0.08631539716715522,
          -0.08781494076218455,
          -0.3182160037658592,
          -0.2395989330485699,
          -0.2812088119583553,
          -0.071847858608543,
          0.07948624462003405,
          -0.26637158670531663,
          -0.05508359045875839,
          0.31211117676203903,
          0.40146703436983305,
          -0.12004251431420077,
          -0.296985964424969,
          0.03208090575651206,
          0.3020729161441696,
          -0.03455762205967302,
          -0.45023236315004483,
          -0.25177122151300807,
          -0.08954478742705986,
          -0.06321151042766257,
          -0.17440473846066018,
          -0.23133634075565948,
          -0.23045462852970397,
          -0.11467783356529519,
          -0.09387019477757065,
          -0.05362357847888555,
          0.18252427563810372,
          -0.015310875294648408,
          -0.12311239617638746,
          -0.15869553051220234,
          -0.09879110208495785,
          -0.010464804523092069,
          0.10093425612261475,
          0.051933664723058076,
          0.10814917261335534,
          0.2827583693339165,
          0.07413189892023293,
          0.0053313347706285905,
          -0.06597938846277138,
          0.20739528644382751,
          0.17701247707426557,
          -0.07923283567552698,
          0.10220162882638012,
          0.08469544993929491,
          -0.1449615100305686,
          -0.15249263561661744,
          -0.025241905383280524,
          -0.11822320314985378,
          -0.13914125661658688,
          0.22253030734416443,
          0.060920602057745604,
          0.016105122354634172,
          -0.0944186740519528,
          0.10504140281628048,
          0.11839843428918623,
          0.175382163173987,
          -0.1068846066103565,
          0.003707627605888206,
          0.11284705009778498,
          0.05719330107453551,
          -0.06507667535593217,
          -0.1767027517226901,
          -0.10101600813610055,
          -0.08577599695044051,
          -0.026273175925655378,
          0.0397553506229967,
          -0.3199911554644627,
          0.03212157662656732,
          0.20138676982178644,
          -0.07816066789836769,
          0.07807561145976658,
          -0.0690063226260518,
          -0.1337922660538232,
          -0.006638613491100347,
          0.09786204742689628,
          0.008894071658173784,
          -0.012774089825356891,
          -0.27055176120939184,
          -0.24148625539706636,
          -0.0748534718762642,
          0.03606112542631396,
          -0.2174163899827943,
          -0.13099000320680368,
          -0.39528332665241805,
          -0.20942100514260273,
          0.08554505238743586,
          -0.02992632898717813,
          -0.2570967023815093,
          -0.07321602766340732,
          0.2791167696511144,
          0.027187171421163538,
          0.024255913962188222,
          -0.03521997204053811,
          -0.042196043441940806,
          0.03370383205833542,
          -0.12257737824026063,
          -0.02755334942542586,
          0.07195676692258336,
          0.1578942348528292,
          -0.004656450449197298,
          -0.008839776602801296
        ],
        [
          -0.21911231403360937,
          -0.07748475401620092,
          0.17470414157567923,
          0.07993097520193976,
          0.029928029689932602,
          0.08382090028163858,
          0.041177867815911005,
          -0.04891391343219665,
          -0.10015314522662676,
          -0.027236381545357045,
          -0.1059641349227132,
          -0.12943552165048458,
          0.03503083707703192,
          0.06643811068453002,
          0.010077231348186338,
          0.17082397752984665,
          0.03556027079124094,
          0.02661537935125247,
          0.0356673242209301,
          0.10585561738175496,
          -0.05769918661180826,
          0.0636088996701249,
          -0.09508288260269991,
          0.09003973916317377,
          0.10883517884695135,
          -0.12380112376032455,
          0.03722056407940956,
          -0.2534328876533527,
          -0.05406960906234645,
          -0.23307351104144935,
          0.149453536378201,
          0.3362671362241865,
          0.15288607938169807,
          0.3326425460870565,
          0.21812227615318877,
          -0.20769839144886318,
          -0.2918540639110689,
          -0.20974579157137666,
          -0.0955151279929799,
          0.073655888722188,
          -0.4020542995270517,
          -0.2119432678374721,
          -0.22295266022577678,
          0.2143569864558592,
          -0.04606517847387101,
          -0.013447759271623998,
          -0.11616642453167031,
          0.19732692200265475,
          -0.14946256298459074,
          -0.5267151546263205,
          -0.03181899293316177,
          0.1520826840698753,
          -0.26513316085829075,
          -0.02495781470345658,
          -0.045890150900562636,
          -0.4284604028040661,
          -0.08507055059258116,
          -0.15572401410284017,
          -0.17188958247018338,
          -0.010443494475954744,
          -0.14268279036357617,
          -0.15083414859311364,
          0.29998426001773887,
          0.07806327166848358,
          -0.05552463566598859,
          -0.003098534697477185,
          -0.09007585548793691,
          -0.031698446389121095,
          0.40427023428789616,
          -0.10911751967016656,
          0.23799096714323914,
          0.09605971986051806,
          0.008889770899262303,
          0.2011606187828052,
          0.026884014576553178,
          0.14116130369584662,
          0.08869053065725278,
          -0.13455384136385645,
          -0.2237994211260725,
          -0.1069965415221185,
          -0.3226364093327269,
          -0.03321275378618894,
          -0.08147462090189432,
          0.14637632019601685,
          0.13853642367016916,
          -0.07187934430532791,
          0.3584867162180737,
          -0.11571289258040739,
          -0.2637479813783208,
          -0.013585591226629461,
          0.16083149391230714,
          0.23602508035306582,
          0.03450735294383854,
          -0.054456442956929474,
          0.2262124822506886,
          0.10131784763127472,
          -0.07404378745319481,
          -0.158847219349781,
          0.011613883230949255,
          0.09392903769263586,
          0.06256284341315252,
          0.012763385131551421,
          0.0531631769167438,
          -0.07367730711064233,
          0.02618948657936122,
          0.002610132705144236,
          0.15057860309064897,
          0.18458054960588635,
          -0.039637639145860604,
          0.0072459521679757105,
          0.19095752665946353,
          0.29234918014157213,
          -0.3045138905877971,
          0.049449373174588876,
          0.1270208455480983,
          -0.2486699115919676,
          -0.10692979899916283,
          -0.10533404233090987,
          -0.08691933840783005,
          -0.10667071857521464,
          0.16051034750224272,
          -0.4049139745326933,
          -0.30988813712094393,
          -0.08168162360968344,
          -0.0765902388662461,
          0.025392116722239778,
          -0.05403890066043333,
          -0.03773911914999415,
          -0.10939542565436933,
          0.05074613141579392,
          0.06339100353020927,
          -0.07664700564010417,
          0.09203884782106023,
          -0.004391406076895138,
          -0.07997967368986303,
          -0.061406684783003866,
          -0.05404552509560317,
          0.06356367160304816,
          -0.03839029082522738,
          -0.0012102400797127444,
          0.07110799327222134,
          0.18442335153497233,
          -0.07309122540872494,
          0.17992231971402978,
          0.1461657387959742,
          0.015694545050641072,
          -0.05977796814490842,
          -0.15575307262107413,
          0.09655070102637524,
          0.013193959221732327,
          -0.1220394461889689,
          0.11567029430001917,
          -0.007479883905066649,
          0.07484861167130136,
          -0.05335764045347273,
          -0.1670907036888292,
          0.11734845070266232,
          0.06517159737422867,
          0.23433029844087136,
          0.1545917493387116,
          0.25724220054792774,
          0.11542075648297584,
          -0.38512217676262456,
          -0.07115634749962539,
          0.033047770680450325,
          0.1269132624703793,
          -0.0029615341764125465,
          -0.030365056894978208,
          0.005755124145258242,
          -0.20790292782747,
          0.04111759234048674,
          -0.13202759598153252,
          -0.35052861411198794,
          -0.1600672049902398,
          -0.28337030679261904,
          0.15145641826496462,
          0.23389400264243446,
          0.041394740389881945,
          -0.11407877586550158,
          0.03965089980065204,
          0.2682200773263344,
          0.19319466859132062,
          -0.03173560663505722,
          0.13798991542196526,
          -0.14608408846829252,
          -0.02603652908571224,
          -0.41206649873979084,
          -0.3372320289412174,
          -0.1180261851504675,
          0.08691461750001853,
          -0.3011284580878613,
          -0.18024354775972623,
          -0.1180227603228116,
          0.06347045301411945,
          0.05935246719432581,
          -0.16414914245339965,
          -0.38180633351823673,
          -0.1644805425623992,
          -0.08064720425015848,
          -0.16490780500212637
        ],
        [
          -0.08617730170049297,
          -0.01691706932093599,
          0.12162621184259247,
          0.15821090386104664,
          -0.06324481641908443,
          -0.13475551124218976,
          -0.06663807501863417,
          0.13863619771771368,
          -0.05415088026888603,
          0.04928944385907056,
          -0.03637572230908016,
          0.02548698520960147,
          0.13158368275941573,
          -0.014702140167353977,
          0.11915223932824423,
          -0.0876753403689154,
          -0.09224908628044053,
          -0.05767931164276439,
          -0.12010758780101503,
          -0.06862538400522057,
          -0.12320884439397145,
          0.12770548047056174,
          -0.0010660153934311037,
          0.0617284849634657,
          -0.054891830771079037,
          -0.050751409575570616,
          -0.05132024057714836,
          0.0842249834975831,
          -0.005467439687070493,
          -0.0020536558997919447,
          0.1954001567106997,
          -0.0813961147392569,
          -0.11961910228932532,
          -0.12223976221256863,
          0.0752639006936747,
          0.05708484659661919,
          -0.2137372582226096,
          0.27868560181138363,
          0.11198942447633474,
          0.14522105253550585,
          -0.04032209308719243,
          0.07098979026399932,
          0.37674075185188827,
          -0.4475060062562972,
          -0.27604936073065384,
          0.2563312306077646,
          -0.2659914698885623,
          -0.0970291633162195,
          0.029506788074704804,
          0.028961597906609075,
          0.31384930008681694,
          0.06264274338026747,
          0.11631674709021315,
          0.05181958367269583,
          0.0031916348926475167,
          0.07608556638902497,
          0.06879661155077352,
          -0.24295517521247262,
          -0.19548276570387474,
          0.27585152977496946,
          -0.03681332748130943,
          -0.46626200236321214,
          -0.281043660628211,
          0.03500069217449861,
          -0.12537311022638792,
          0.32325592215854954,
          0.3601945689229706,
          -0.14625302235654536,
          -0.2145947706240145,
          -0.12596452795489882,
          0.013855528260385226,
          0.045056912278714875,
          -0.5198788486980922,
          -0.06411444837983526,
          0.2179837328741257,
          -0.07688463996358372,
          -0.08832439022534197,
          -0.19174514338961332,
          0.14142989189751687,
          -0.14486226557301163,
          -0.06166427780139755,
          -0.38976564563066884,
          -0.3732335894168095,
          -0.07728097287756884,
          -0.03566710453552961,
          -0.0317853956711995,
          -0.22329785437739916,
          -0.3282914729691276,
          0.06978400965960883,
          0.1814432626054599,
          0.11078108467678706,
          -0.08703307718564761,
          0.08301351698819745,
          -0.1599938962246293,
          0.031449385944515316,
          0.03393250086390841,
          -0.22954783414677873,
          -0.38403890657382994,
          -0.1689960993696761,
          -0.11181653491036743,
          -0.1102716836624214,
          -0.06962434741753419,
          -0.018116201352572414,
          0.15678844516767473,
          -0.038969484797533566,
          -0.2517994002650111,
          -0.014018304778102971,
          0.05584606237108748,
          -0.2950893681375247,
          0.08042415155840471,
          0.04678169176229176,
          -0.0052795547172259675,
          -0.4122547340406333,
          -0.3017071193770463,
          0.006008676836397515,
          -0.14304347915070997,
          -0.5458070711785726,
          -0.5524962011318649,
          0.03383084525440889,
          -0.03489068702575443,
          -0.6330959510942485,
          -0.4468016834927354,
          -0.3161609197953948,
          -0.12643251461705024,
          -0.1784694154011022,
          0.026579417967658392,
          -0.09967681573107345,
          -0.10671573790477741,
          0.0009137918907656708,
          -0.04478586518178613,
          -0.09351750407000683,
          -0.12090341186549644,
          -0.08004645563930432,
          -0.010936915691264268,
          -0.12006819845777622,
          -0.046267883096960886,
          -0.12913781852246853,
          0.014936570722766686,
          0.08756262730179701,
          0.0554530821445505,
          -0.05876989221062232,
          -0.05383288839952669,
          0.10437500874197252,
          -0.09899985588635545,
          -0.10588173415395488,
          -0.08738608787761241,
          -0.04758371718222596,
          -0.13195515648399633,
          -0.043046617275663224,
          -0.026511299549967983,
          -0.12017541029575457,
          0.09313529744891327,
          0.13956456025526678,
          0.009741079375926625,
          -0.042831127184586155,
          -0.09108349937384586,
          -0.17865544180085915,
          0.05278850124000807,
          0.18507413892188482,
          0.15465835321004334,
          -0.2890616221631703,
          -0.34247939254198295,
          -0.004706535621608407,
          0.3576742793395473,
          0.26022173288651335,
          0.03285226453479038,
          0.10136723714965072,
          0.01814674406431726,
          -0.27415601958150093,
          -0.24107533915881235,
          -0.16502448685931673,
          -0.1559691065381978,
          0.3132263628966751,
          0.07473220106728448,
          -0.05743167503917761,
          -0.23144857090945478,
          -0.28258343457291263,
          0.029267228002723977,
          0.19662699493802635,
          0.14709572557095105,
          0.00093972496822709,
          0.038083070386972534,
          0.13217626466181376,
          -0.19323493994011795,
          -0.017150767047684326,
          0.2630089001867356,
          0.31138217802172274,
          0.18391908881930022,
          0.07046720280724313,
          0.08088333620542186,
          -0.29562566825464237,
          -0.03683707126721833,
          -0.016214569037845322,
          0.18578228977351754,
          -0.032853461460903996,
          0.012142811278282074,
          0.28599990015262233,
          0.12431069770427208,
          -0.10755703116221016,
          -0.2157788263448063
        ],
        [
          -0.13238213746095034,
          -0.09787742489765662,
          0.028839921507453868,
          -0.07309514772794182,
          -0.12013160679510351,
          0.018652597640395653,
          -0.052151955087969916,
          -0.11186774265981364,
          0.079631500388081,
          0.014252016485519513,
          0.060404880133834875,
          -0.017118512116829254,
          -0.027169579741143764,
          -0.08047147830616212,
          -0.029765101108434232,
          -0.08860297062418328,
          0.06260494149661783,
          -0.05730711162850544,
          0.11471224794075174,
          0.15691862878378937,
          -0.013388779989313435,
          -0.09591859176022602,
          -0.17809409746174984,
          -0.04467273101055816,
          -0.045019015065838316,
          -0.14863524114720983,
          -0.1747278450059972,
          0.0505987181951336,
          -0.10250736067858565,
          -0.27607900018414416,
          0.2013572059927744,
          -0.14008599711781672,
          -0.11472806705383272,
          0.08285945997954541,
          -0.0761944526953896,
          0.18554267312897713,
          0.04191664034115734,
          0.061129054193874065,
          0.6115057170919415,
          0.21654713114364316,
          0.017502696554769364,
          -0.34463376502781873,
          -0.12186766618229149,
          0.20671767948829659,
          0.054676780249822185,
          -0.4067623839519811,
          -0.07802024942406803,
          -0.286881315241504,
          -0.3292840965001749,
          0.10892404676209205,
          -0.08519239619932467,
          0.007294446626933343,
          -0.21627824965525047,
          -0.3215799126596871,
          -0.1802863464609315,
          0.2291863278838486,
          0.3762421060262157,
          0.13332824622001074,
          -0.3968093656395286,
          -0.2543134707802466,
          0.1273495519633802,
          0.017175557848924057,
          -0.6351251148238968,
          -0.023110575348759745,
          -0.17140098392655836,
          -0.22533801487269015,
          -0.45773099258196404,
          -0.014202888163317927,
          -0.057714853677532485,
          0.01205643394167696,
          0.1198558339324028,
          0.24318496128306713,
          0.0034345054288025248,
          0.07521130555273255,
          0.13232299589809293,
          0.022114376818963548,
          0.1298942122851392,
          -0.20367452952328613,
          -0.18603641617735464,
          0.007777223787167025,
          -0.28195267407206503,
          -0.30225700405844136,
          -0.06357704048212896,
          -0.27199610669274255,
          -0.1120032658448872,
          -0.170776112938233,
          -0.43400221824576624,
          -0.15103915214957672,
          0.05461561827305799,
          -0.05510819811427514,
          -0.05440436198489926,
          -0.31301415256460624,
          0.06272629620276726,
          0.026757195477813567,
          -0.08710557893668142,
          -0.010250705113688642,
          0.00910720785295918,
          0.03447287376945804,
          -0.07676972958018642,
          -0.012230408065863828,
          -0.1775049485194695,
          -0.08992940967411615,
          0.17574824746109172,
          -0.012936501097030751,
          -0.02531414773544312,
          0.012315601319442931,
          -0.034251065693736656,
          -0.03937225326334036,
          0.015586604408365488,
          -0.07000857094167624,
          -0.4187554868293082,
          -0.13881146134124506,
          -0.21344687022204598,
          -0.023977096025396778,
          -0.4433853118595266,
          -0.3458743994767759,
          0.3581279479696697,
          0.033928373408644505,
          -0.6302954530150281,
          -0.08249381159502876,
          0.05630244024479862,
          0.2095724288369937,
          -0.026975804810164195,
          -0.014035356483796148,
          -0.006115518264235831,
          0.06732547251885743,
          0.1356784133972502,
          0.024208968901504188,
          -0.018737997848542964,
          -0.018890207543508085,
          0.15825578082281622,
          0.0425187045784762,
          0.10266815140796326,
          -0.012260541945022355,
          -0.07546547904734344,
          -0.11223953769308254,
          -0.10854440734163474,
          -0.05228736219172363,
          -0.1326549732001843,
          -0.19308714815563685,
          0.035751910959005026,
          -0.10343996301452606,
          0.17014729789545227,
          -0.1656035653151608,
          0.038037535771046134,
          0.022577002428696008,
          0.013675525120086806,
          -0.06312517686626154,
          0.0006020858632877028,
          -0.11081684402055153,
          -0.01408330387406427,
          0.18656815826597603,
          0.23968708431404062,
          0.29644092672838585,
          -0.007683324441033176,
          0.05842789052300866,
          0.16938025085211736,
          -0.004090483976835827,
          -0.1350824051959163,
          -0.2849327250402346,
          -0.4381655459755717,
          -0.06306027625955468,
          0.25874696265265396,
          -0.05732445922971868,
          -0.15942137427296876,
          -0.3773571442147434,
          0.21592716658686587,
          0.18706463726943412,
          -0.094046929662071,
          -0.13419366160687934,
          -0.08561639206738,
          0.08137928812091896,
          -0.3919579998094228,
          -0.21917633959523897,
          0.08119846660741803,
          -0.1258986377085553,
          -0.15914112434108377,
          0.15898664812966773,
          0.024506003421192902,
          -0.0969898790073216,
          -0.18297584784975196,
          -0.18794809015642805,
          -0.01989339257553598,
          0.09335549228733277,
          0.01261242792878901,
          0.1971512371479143,
          0.23839084114975773,
          0.15566707589473308,
          -0.12745665006358622,
          -0.12613121397408275,
          0.03091802192499173,
          0.4568246768806613,
          -0.3190264634678156,
          -0.43569876261110396,
          -0.266539890323778,
          -0.20704470486809504,
          -0.24291120781400735,
          -0.2302622912031698,
          -0.19672259951980994,
          0.08292648235386717
        ]
      ]
    ],
    "biases": [
      [
        -0.04145405448218297,
        0.007696347181936992,
        -0.11751895679902616,
        -0.14278964031141614,
        -0.04528647608088513,
        -0.056164452741625466,
        -0.10475504266975055,
        -0.03246921285417144,
        -0.06898050876362373,
        -0.08832232614133384
      ]
    ]
  }